{"type":"LSTM","options":{"inputSize":58,"inputRange":58,"hiddenLayers":[20,20],"outputSize":58,"decayRate":0.999,"smoothEps":1e-8,"regc":0.000001,"clipval":5,"maxPredictionLength":100,"dataFormatter":{"values":["Hey, Monica!","Hey Frannie, welcome back! How was Florida?","You had sex, didn't you?","So? Who?","You know Paul?","Paul the Wine Guy? Oh yeah, I know Paul.","You mean you know Paul like I know Paul?","Are you kidding? I take credit for Paul. Y'know before me, there was nosnap in his turtle for two years.","(sitting on the arm of the couch)Of course it was a line!","Why?! Why? Why, why would anybody do something like that?","I assume we're looking for an answer more sophisticated than 'to get youinto bed'.","All right, c'mere, gimme your feet. (She starts massaging them.)","I just thought he was nice, y'know?","(bursts out laughing again) I can't believe you didn't know it was a line!","Guess what?","You got a job?","Are you kidding? I'm trained for nothing! I was laughed out of twelveinterviews today.","And yet you're surprisingly upbeat.","You would be too if you found John and David boots on sale, fiftypercent off!","Oh, how well you know me...","They're my new 'I don't need a job, I don't need my parents, I've gotgreat boots' boots!","How'd you pay for them?","Uh, credit card.","And who pays for that?","Um... my... father.","C'mon, you can't live off your parents your whole life.","I know that. That's why I was getting married.","Give her a break, it's hard being on your own for the first time.","Thank you.","You're welcome. I remember when I first came to this city. I wasfourteen. My mom had just killed herself and my step-dad was back in prison, and I gothere, and I didn't know anybody. And I ended up living with this albino guy who was, like,cleaning windshields outside port authority, and then he killed himself, and then I foundaromatherapy. So believe me, I know exactly how you feel.","The word you're looking for is 'Anyway'...","C'mon, cut. Cut, cut, cut,...","Well, that's it (To Ross) You gonna crash on the couch?","No. No, I gotta go home sometime.","You be okay?","Yeah.","Hey Mon, look what I just found on the floor. (Monica smiles.) What?","Mmm. (They both reach for the last cookie) Oh, no-","Sorry-","No no no, go-","No, you have it, really, I don't want it-","Split it?","Okay.","Okay. (They split it.) You know you probably didn't know this, but back inhigh school, I had a, um, major crush on you.","I knew.","You did! Oh.... I always figured you just thought I was Monica's geekyolder brother.","I did.","Oh. Listen, do you think- and try not to let my intense vulnerabilitybecome any kind of a factor here- but do you think it would be okay if I asked you out?Sometime? Maybe?","Yeah, maybe...","Okay... okay, maybe I will...","Goodnight.","See ya.... Waitwait, what's with you?","I just grabbed a spoon. (Ross exits and Monica has no idea what thatmeans.)","I can't believe what I'm hearing here.","(sings)","What? I-I said you had a-","(to Phoebe) Would you stop?","(walks up with a pot of coffee) Would anybody like more coffee?","Did you make it, or are you just serving it?","I'm just serving it.","Yeah. Yeah, I'll have a cup of coffee.","Yeah, right!.......Y'serious?","Oh, yeah!","Everything you need to know is in that first kiss.","Absolutely.","Yeah, I think for us, kissing is pretty much like an opening act,y'know? I mean it's like the stand-up comedian you have to sit through before Pink Floydcomes out.","Yeah, and-and it's not that we don't like the comedian, it's that-that...that's not why we bought the ticket.","The problem is, though, after the concert's over, no matter how greatthe show was, you girls are always looking for the comedian again, y'know? I mean, we'rein the car, we're fighting traffic... basically just trying to stay awake.","Yeah, well, word of advice: Bring back the comedian. Otherwise next timeyou're gonna find yourself sitting at home, listening to that album alone.","No, it's good, it is good, it's just that- mm- doesn't she seem a littleangry?","Well, she has issues.","Does she.","He's out banging other women over the head with a club, while she sitsat home trying to get the mastodon smell out of the carpet!","Marsha, these are cave people. Okay? They have issues like 'Gee, thatglacier's getting kinda close.' See?","Speaking of issues, isn't that your ex-wife?","(trying to ignore her) No. No.","Yes, it is. Carol! Hi!","Okay, okay, yes, it is. (waves) How about I'll, uh, catch up with you inthe Ice Age.","Hi."],"indexTable":{"H":0,"e":1,"y":2,",":3," ":4,"M":5,"o":6,"n":7,"i":8,"c":9,"a":10,"!":11,"F":12,"r":13,"w":14,"l":15,"m":16,"b":17,"k":18,"s":19,"d":20,"?":21,"Y":22,"u":23,"h":24,"x":25,"'":26,"t":27,"S":28,"W":29,"P":30,"G":31,"O":32,"I":33,".":34,"A":35,"g":36,"f":37,"p":38,"(":39,")":40,"j":41,"v":42,"J":43,"D":44,"T":45,"U":46,"C":47,"-":48,"R":49,"N":50,"L":51,"E":52,":":53,"B":54,"stop-input":55,"start-output":56,"unrecognized":57},"characterTable":{"0":"H","1":"e","2":"y","3":",","4":" ","5":"M","6":"o","7":"n","8":"i","9":"c","10":"a","11":"!","12":"F","13":"r","14":"w","15":"l","16":"m","17":"b","18":"k","19":"s","20":"d","21":"?","22":"Y","23":"u","24":"h","25":"x","26":"'","27":"t","28":"S","29":"W","30":"P","31":"G","32":"O","33":"I","34":".","35":"A","36":"g","37":"f","38":"p","39":"(","40":")","41":"j","42":"v","43":"J","44":"D","45":"T","46":"U","47":"C","48":"-","49":"R","50":"N","51":"L","52":"E","53":":","54":"B","55":null,"56":null,"57":null},"characters":["H","e","y",","," ","M","o","n","i","c","a","!","F","r","w","l","m","b","k","s","d","?","Y","u","h","x","'","t","S","W","P","G","O","I",".","A","g","f","p","(",")","j","v","J","D","T","U","C","-","R","N","L","E",":","B","stop-input","start-output","unrecognized"],"specialIndexes":[55,56,57]}},"input":{"rows":59,"columns":58,"weights":{"0":-0.5029994249343872,"1":-0.1298477053642273,"2":0.12257685512304306,"3":0.3608567714691162,"4":0.6939757466316223,"5":0.7867178916931152,"6":0.09939133375883102,"7":-1.7978260517120361,"8":-0.79939866065979,"9":1.5935726165771484,"10":-1.572963833808899,"11":1.4826514720916748,"12":0.6830700039863586,"13":-1.7159029245376587,"14":0.4188738167285919,"15":0.024329204112291336,"16":0.8174571394920349,"17":0.2186877280473709,"18":-1.7451848983764648,"19":1.0541011095046997,"20":1.2418485879898071,"21":0.5223606824874878,"22":0.3031218349933624,"23":2.803992509841919,"24":0.14024718105793,"25":0.4685356914997101,"26":0.4549163281917572,"27":0.9415338039398193,"28":-0.25608792901039124,"29":-1.4931625127792358,"30":-1.17694091796875,"31":-0.26372095942497253,"32":0.10285362601280212,"33":1.107866644859314,"34":-1.9311023950576782,"35":-0.9298027753829956,"36":-1.1001895666122437,"37":2.0520787239074707,"38":-0.12998750805854797,"39":0.4793986976146698,"40":0.03306497260928154,"41":-1.1041641235351562,"42":-1.237443447113037,"43":0.8750126957893372,"44":-0.15882237255573273,"45":0.32185786962509155,"46":-0.2924624979496002,"47":-0.6727290749549866,"48":-0.17915008962154388,"49":0.5856052041053772,"50":-0.019332969561219215,"51":0.6620664596557617,"52":0.2977901101112366,"53":3.9479520320892334,"54":0.3711991012096405,"55":1.2112939357757568,"56":-1.7471873760223389,"57":0.6561298966407776,"58":-1.8744971752166748,"59":-3.2524189949035645,"60":-4.660682678222656,"61":1.7991676330566406,"62":-5.140437126159668,"63":-3.5131185054779053,"64":7.141080379486084,"65":5.474976539611816,"66":1.9401068687438965,"67":4.463244915008545,"68":-0.3329104483127594,"69":-2.9090194702148438,"70":-0.6107075810432434,"71":1.3806170225143433,"72":2.6608126163482666,"73":0.6648843884468079,"74":9.044068336486816,"75":-1.019980788230896,"76":9.266613006591797,"77":-2.0840225219726562,"78":-1.7058569192886353,"79":-6.9611077308654785,"80":-8.30061149597168,"81":-4.1873674392700195,"82":-1.206556797027588,"83":-6.0824666023254395,"84":-9.752274513244629,"85":-5.596111297607422,"86":-4.02992582321167,"87":3.8108983039855957,"88":9.89317798614502,"89":0.6382002234458923,"90":0.5632699728012085,"91":-9.757122993469238,"92":8.86400032043457,"93":7.175643444061279,"94":6.524629592895508,"95":-4.938130855560303,"96":-3.1250903606414795,"97":0.5348455309867859,"98":-5.40993070602417,"99":3.141350269317627,"100":6.5552544593811035,"101":-4.400983810424805,"102":11.298441886901855,"103":-4.35720682144165,"104":-12.546768188476562,"105":1.6711286306381226,"106":5.488908767700195,"107":-7.448431968688965,"108":-3.4889988899230957,"109":5.047138690948486,"110":-0.9314858913421631,"111":-10.291763305664062,"112":0.6385588049888611,"113":1.8222479820251465,"114":10.730781555175781,"115":5.803710460662842,"116":-0.6799978613853455,"117":1.316516399383545,"118":-1.074289083480835,"119":1.1291401386260986,"120":-1.2885717153549194,"121":0.08767654746770859,"122":0.4070926010608673,"123":-1.631474494934082,"124":1.0132098197937012,"125":0.25879693031311035,"126":-1.580613136291504,"127":-0.30206388235092163,"128":-1.0994846820831299,"129":-0.37686094641685486,"130":-1.5173022747039795,"131":2.3627219200134277,"132":0.6433603763580322,"133":-0.6474682092666626,"134":0.7109694480895996,"135":-1.382069706916809,"136":0.00746586499735713,"137":-0.096293605864048,"138":-1.3923190832138062,"139":1.9358632564544678,"140":-2.0401291847229004,"141":1.9597795009613037,"142":0.41000115871429443,"143":-0.8001165390014648,"144":-0.3958030045032501,"145":0.5012871623039246,"146":-1.4314041137695312,"147":2.988182544708252,"148":-0.16660813987255096,"149":-1.0944242477416992,"150":-0.7663363814353943,"151":-3.1552388668060303,"152":2.626891613006592,"153":-4.184986591339111,"154":2.1379687786102295,"155":0.519464373588562,"156":-0.2580952048301697,"157":-1.4267207384109497,"158":-3.011195182800293,"159":1.4639544486999512,"160":-2.255502939224243,"161":-0.37129759788513184,"162":-0.45754528045654297,"163":-4.023936748504639,"164":0.08914608508348465,"165":1.5226600170135498,"166":1.6939542293548584,"167":-1.2636866569519043,"168":-5.593016624450684,"169":2.190871477127075,"170":1.0368953943252563,"171":1.8791987895965576,"172":-0.5109904408454895,"173":-1.1621911525726318,"174":-0.9798476696014404,"175":-2.3075921535491943,"176":1.3395949602127075,"177":0.1968206763267517,"178":1.0428279638290405,"179":-0.3142653703689575,"180":-0.7441035509109497,"181":0.24303245544433594,"182":-0.14731523394584656,"183":0.859061598777771,"184":-0.768065869808197,"185":-0.2921055853366852,"186":-0.0017707503866404295,"187":-0.459702730178833,"188":0.9626286029815674,"189":-0.02001158334314823,"190":2.866204023361206,"191":-0.9179215431213379,"192":-1.2333372831344604,"193":-1.0635182857513428,"194":0.051352716982364655,"195":-0.9506364464759827,"196":-0.684454619884491,"197":1.0290087461471558,"198":-1.201032042503357,"199":0.9281789660453796,"200":-2.2740724086761475,"201":-0.22395505011081696,"202":-1.9532597064971924,"203":1.0898054838180542,"204":-1.1549123525619507,"205":-0.8397803902626038,"206":1.090853214263916,"207":-2.2493410110473633,"208":1.5706292390823364,"209":-0.893419086933136,"210":-0.9050630927085876,"211":-0.5239701867103577,"212":3.0307517051696777,"213":-0.7397914528846741,"214":2.193829298019409,"215":-0.17244964838027954,"216":1.5281866788864136,"217":-0.004822296556085348,"218":-0.9491674900054932,"219":0.5728995203971863,"220":-0.3317386209964752,"221":-0.4183019697666168,"222":0.3875434100627899,"223":0.08744045346975327,"224":-0.6728434562683105,"225":0.6101632714271545,"226":0.14222106337547302,"227":0.8547311425209045,"228":0.2916463315486908,"229":1.4686152935028076,"230":0.4207298755645752,"231":1.0295079946517944,"232":-1.309401035308838,"233":0.5922962427139282,"234":3.453399896621704,"235":-2.6590240001678467,"236":-2.3543782234191895,"237":1.423031210899353,"238":2.2011961936950684,"239":3.676079034805298,"240":0.8921427130699158,"241":1.1310878992080688,"242":1.4096922874450684,"243":-1.4462734460830688,"244":1.802822232246399,"245":2.619887351989746,"246":0.24574513733386993,"247":-0.8657390475273132,"248":1.0447131395339966,"249":-3.6850407123565674,"250":0.6062601804733276,"251":-3.5478317737579346,"252":-2.6507935523986816,"253":-1.0415105819702148,"254":0.3718988001346588,"255":0.05585435405373573,"256":0.8377379775047302,"257":-4.650179386138916,"258":-0.39278507232666016,"259":2.083343982696533,"260":1.8188138008117676,"261":-0.6133706569671631,"262":2.387449026107788,"263":-1.245503306388855,"264":-2.82185959815979,"265":-0.32927119731903076,"266":1.205504059791565,"267":2.661280870437622,"268":1.4729887247085571,"269":0.9979819655418396,"270":-4.296395778656006,"271":-2.452515125274658,"272":0.6469818353652954,"273":3.291213035583496,"274":0.41588249802589417,"275":-1.4493448734283447,"276":2.609917640686035,"277":0.547989010810852,"278":1.413818359375,"279":-1.8858119249343872,"280":1.8653538227081299,"281":-1.5043911933898926,"282":-0.9544023275375366,"283":-0.40310707688331604,"284":-3.613147020339966,"285":3.2989182472229004,"286":0.1864882856607437,"287":4.325148582458496,"288":0.23867252469062805,"289":0.10282711684703827,"290":-2.142470598220825,"291":-1.3677692413330078,"292":-0.04581445828080177,"293":0.6588414311408997,"294":0.5657918453216553,"295":-1.4631611108779907,"296":-0.1912621110677719,"297":4.610219955444336,"298":-1.1813079118728638,"299":1.0429203510284424,"300":-1.4869771003723145,"301":0.16872136294841766,"302":1.9484281539916992,"303":-0.6861975193023682,"304":1.135898470878601,"305":-1.5129791498184204,"306":0.024462515488266945,"307":-1.6832457780838013,"308":2.3120999336242676,"309":0.4318903088569641,"310":1.4555712938308716,"311":-2.1659395694732666,"312":-0.07651256769895554,"313":-0.5488404035568237,"314":0.9539794921875,"315":0.7738446593284607,"316":-1.7695850133895874,"317":-1.867170810699463,"318":0.5766084790229797,"319":-0.008190156891942024,"320":-0.17688387632369995,"321":0.05383329465985298,"322":-1.417160153388977,"323":-0.23720425367355347,"324":1.9676520824432373,"325":0.8304912447929382,"326":-0.2351856678724289,"327":1.7517714500427246,"328":-0.1744024157524109,"329":2.478822946548462,"330":-1.3584790229797363,"331":0.002394006121903658,"332":-0.2440393567085266,"333":-0.15717224776744843,"334":1.3946471214294434,"335":0.8023684024810791,"336":-1.4358259439468384,"337":-0.21505314111709595,"338":1.3332633972167969,"339":-1.5424509048461914,"340":-0.5732920169830322,"341":-0.5069779753684998,"342":-2.1160967350006104,"343":-1.0850589275360107,"344":0.960253894329071,"345":-0.9764865040779114,"346":0.9763681292533875,"347":-0.15873587131500244,"348":-9.83818244934082,"349":-5.930434226989746,"350":-1.968135118484497,"351":0.25572237372398376,"352":0.2794021964073181,"353":-3.1766393184661865,"354":-0.30188971757888794,"355":-6.041301250457764,"356":-1.2441524267196655,"357":6.7734055519104,"358":-4.551534175872803,"359":-0.9146713018417358,"360":-2.08417010307312,"361":-2.4748482704162598,"362":-2.804575204849243,"363":4.9633355140686035,"364":3.2007458209991455,"365":-2.438316583633423,"366":2.659820556640625,"367":5.36808443069458,"368":0.4255671203136444,"369":-2.175036668777466,"370":0.6772544980049133,"371":-5.429397106170654,"372":-0.19697263836860657,"373":0.29730224609375,"374":-2.131053924560547,"375":-4.297822952270508,"376":-6.960506439208984,"377":-6.541228294372559,"378":-3.009958028793335,"379":-1.8415088653564453,"380":0.912632167339325,"381":1.6085211038589478,"382":0.5518221259117126,"383":-1.747131109237671,"384":1.648759365081787,"385":5.4781928062438965,"386":2.8639605045318604,"387":-4.949854850769043,"388":0.7406196594238281,"389":-0.026905274018645287,"390":6.569180011749268,"391":-4.1716532707214355,"392":5.378934860229492,"393":0.28313854336738586,"394":-2.4634151458740234,"395":-6.270076751708984,"396":0.989260196685791,"397":-1.826425313949585,"398":1.3961480855941772,"399":1.9072340726852417,"400":-0.8829471468925476,"401":-0.3354654312133789,"402":0.8534941077232361,"403":1.4392820596694946,"404":6.159719944000244,"405":-0.5035884380340576,"406":-3.2349281311035156,"407":-0.37759163975715637,"408":0.21468351781368256,"409":0.235581174492836,"410":-2.3346598148345947,"411":3.4540767669677734,"412":-0.3755709230899811,"413":-0.34686729311943054,"414":-1.3262168169021606,"415":-0.43544015288352966,"416":-1.7198437452316284,"417":-0.1838664412498474,"418":-1.0371516942977905,"419":3.2680819034576416,"420":0.8012044429779053,"421":1.396257758140564,"422":1.1164718866348267,"423":0.9368035197257996,"424":-0.4915792644023895,"425":-1.415520191192627,"426":1.2331115007400513,"427":1.3007315397262573,"428":-0.6310510039329529,"429":-2.815079689025879,"430":1.4467631578445435,"431":2.5600366592407227,"432":-2.542797565460205,"433":-0.6944885849952698,"434":2.590505838394165,"435":-3.344041109085083,"436":0.908846914768219,"437":-0.878631055355072,"438":1.7031736373901367,"439":2.0510547161102295,"440":1.5292725563049316,"441":3.1230671405792236,"442":1.065636157989502,"443":2.4801738262176514,"444":-1.296363115310669,"445":-0.30449536442756653,"446":0.11537294834852219,"447":1.9948582649230957,"448":1.6918370723724365,"449":0.47453054785728455,"450":1.513601303100586,"451":-0.09301973879337311,"452":-0.5500313639640808,"453":-1.0373228788375854,"454":-3.014702796936035,"455":-2.5117647647857666,"456":0.20464809238910675,"457":-2.9155960083007812,"458":-0.48089632391929626,"459":-0.2894012928009033,"460":2.2022347450256348,"461":-0.7982123494148254,"462":2.6317098140716553,"463":-2.9657673835754395,"464":-1.5065251588821411,"465":-4.306746006011963,"466":0.8513538837432861,"467":-0.2404552847146988,"468":0.40142789483070374,"469":-1.0733723640441895,"470":-0.9073711037635803,"471":-0.3423095941543579,"472":-0.3703295886516571,"473":0.09554804861545563,"474":-0.8040858507156372,"475":0.6411886811256409,"476":-1.0595145225524902,"477":-1.5614243745803833,"478":1.2449047565460205,"479":0.8958325386047363,"480":2.8535234928131104,"481":-1.4629122018814087,"482":-0.8188160061836243,"483":0.14708705246448517,"484":-0.31774038076400757,"485":-0.7907892465591431,"486":-1.2099828720092773,"487":-1.0709096193313599,"488":-1.036380648612976,"489":1.3575749397277832,"490":-2.8452956676483154,"491":0.20290954411029816,"492":-1.084026575088501,"493":-1.571516513824463,"494":-1.534550666809082,"495":0.49704620242118835,"496":0.05050455033779144,"497":-1.262668490409851,"498":1.6317837238311768,"499":0.9846257567405701,"500":0.35084548592567444,"501":3.3567380905151367,"502":3.2705414295196533,"503":1.5719001293182373,"504":0.3074563443660736,"505":-0.28688105940818787,"506":1.8145270347595215,"507":-2.9338266849517822,"508":0.7687923312187195,"509":0.3095923960208893,"510":-1.3154672384262085,"511":-2.428034543991089,"512":-0.04909648001194,"513":-2.7697808742523193,"514":0.3703087270259857,"515":-0.08307395130395889,"516":-1.2610489130020142,"517":-0.02884357050061226,"518":3.6977458000183105,"519":0.040971796959638596,"520":3.5932865142822266,"521":-1.1855393648147583,"522":-0.8353613615036011,"523":-0.7996130585670471,"524":-0.17265431582927704,"525":-1.471471905708313,"526":1.561625361442566,"527":-0.995421826839447,"528":0.7598093748092651,"529":4.389687538146973,"530":1.157565951347351,"531":-0.33505138754844666,"532":0.09753482788801193,"533":1.635279655456543,"534":2.751049757003784,"535":-2.634535789489746,"536":3.4072892665863037,"537":-0.9706462025642395,"538":1.245618462562561,"539":-3.335670232772827,"540":2.1307151317596436,"541":0.16155651211738586,"542":1.706677794456482,"543":-2.7319583892822266,"544":1.8297016620635986,"545":3.897981643676758,"546":0.6832014918327332,"547":-0.9941745400428772,"548":0.07729101926088333,"549":0.20311205089092255,"550":0.598495602607727,"551":2.2992348670959473,"552":-2.358112335205078,"553":-1.4431092739105225,"554":-0.5147277116775513,"555":0.40012457966804504,"556":0.8070622682571411,"557":-3.4235050678253174,"558":-2.2953968048095703,"559":2.118807792663574,"560":2.3921496868133545,"561":-0.050699759274721146,"562":2.016651153564453,"563":-0.5229314565658569,"564":-2.7228586673736572,"565":6.893660545349121,"566":1.347812294960022,"567":-0.07400061190128326,"568":0.22555287182331085,"569":0.6070125102996826,"570":2.6420509815216064,"571":0.9187784194946289,"572":0.9816570281982422,"573":-0.9996739625930786,"574":-2.6304144859313965,"575":-0.23018527030944824,"576":-0.7207916378974915,"577":-3.063587188720703,"578":-3.604736328125,"579":1.2075464725494385,"580":-3.2349588871002197,"581":0.11065874248743057,"582":-0.6400671601295471,"583":0.9580880403518677,"584":2.7755794525146484,"585":-1.3358125686645508,"586":-0.4928878843784332,"587":4.086574554443359,"588":-2.164637565612793,"589":2.131155252456665,"590":0.14449678361415863,"591":-0.21424604952335358,"592":1.1856533288955688,"593":2.9444544315338135,"594":-0.9156263470649719,"595":1.5659574270248413,"596":-1.805105209350586,"597":-1.4677183628082275,"598":6.8992815017700195,"599":-0.8348644375801086,"600":2.012652635574341,"601":-0.5859281420707703,"602":2.7054638862609863,"603":-1.5374222993850708,"604":0.15366323292255402,"605":1.7900543212890625,"606":0.08083628118038177,"607":-2.604006052017212,"608":-2.2437949180603027,"609":-0.1623823642730713,"610":2.688464403152466,"611":-0.14352460205554962,"612":1.4802614450454712,"613":-2.6192212104797363,"614":2.279020071029663,"615":-0.795905351638794,"616":-0.9602839350700378,"617":1.4445879459381104,"618":0.0586530975997448,"619":1.5654023885726929,"620":-1.1628488302230835,"621":-0.39751967787742615,"622":-2.238123655319214,"623":0.39921581745147705,"624":1.3401848077774048,"625":-1.2940282821655273,"626":0.05520796403288841,"627":-1.317308783531189,"628":6.596439361572266,"629":1.7182950973510742,"630":1.0583128929138184,"631":1.8434045314788818,"632":-2.487426519393921,"633":-8.700967788696289,"634":-2.662105083465576,"635":-3.1625893115997314,"636":-0.14636662602424622,"637":1.3657879829406738,"638":-1.5442228317260742,"639":-0.49061399698257446,"640":1.6368858814239502,"641":-1.0485390424728394,"642":0.3392796814441681,"643":-4.279543876647949,"644":-0.12540626525878906,"645":1.354405164718628,"646":-1.0481873750686646,"647":0.5069131851196289,"648":-1.3714947700500488,"649":0.8695471882820129,"650":1.6686389446258545,"651":-0.7052014470100403,"652":0.7249962091445923,"653":-1.4002585411071777,"654":1.3793734312057495,"655":-1.0495820045471191,"656":0.1212630569934845,"657":2.00689959526062,"658":-1.4657409191131592,"659":0.32818877696990967,"660":1.8547080755233765,"661":-1.4213855266571045,"662":-2.632373571395874,"663":0.02802271954715252,"664":2.6258463859558105,"665":0.06565466523170471,"666":-3.2473528385162354,"667":-1.7377040386199951,"668":0.4309249520301819,"669":-2.192927598953247,"670":-1.1552646160125732,"671":-0.9332255721092224,"672":-0.8267756700515747,"673":-0.7517352104187012,"674":-1.2284530401229858,"675":4.616993427276611,"676":-2.115464687347412,"677":-1.9740896224975586,"678":1.2719939947128296,"679":0.1578049212694168,"680":-0.4386621117591858,"681":-2.141043186187744,"682":-0.2160119116306305,"683":0.4964717626571655,"684":2.712679386138916,"685":2.3090622425079346,"686":2.4518747329711914,"687":-0.5399160981178284,"688":-2.2578163146972656,"689":1.6954180002212524,"690":-3.3563482761383057,"691":-0.12606605887413025,"692":1.4459693431854248,"693":-0.3050011098384857,"694":-1.0034799575805664,"695":0.9071841835975647,"696":6.690450191497803,"697":-0.19085730612277985,"698":-0.6030736565589905,"699":-1.1637073755264282,"700":4.043857097625732,"701":1.937852382659912,"702":-0.2100159227848053,"703":0.8146097660064697,"704":-0.09770067036151886,"705":-1.8663721084594727,"706":2.2071752548217773,"707":8.183688163757324,"708":0.9675460457801819,"709":-2.632887363433838,"710":6.557013034820557,"711":-4.3966193199157715,"712":-2.3675715923309326,"713":-2.5181126594543457,"714":-2.2724616527557373,"715":13.198962211608887,"716":0.9036877155303955,"717":-7.392339706420898,"718":-2.1819629669189453,"719":-0.3421020805835724,"720":4.297526836395264,"721":-0.7411569952964783,"722":2.2766623497009277,"723":-2.2177958488464355,"724":0.368524968624115,"725":2.238720178604126,"726":3.056636333465576,"727":-3.0021634101867676,"728":-4.476358413696289,"729":6.392841815948486,"730":-0.5669260621070862,"731":-0.33494579792022705,"732":-8.236083984375,"733":-2.7987935543060303,"734":-1.7627785205841064,"735":-1.8056215047836304,"736":2.517357110977173,"737":-4.467235088348389,"738":-2.0228874683380127,"739":-0.29653358459472656,"740":0.08168704062700272,"741":-0.11326073855161667,"742":1.5684908628463745,"743":6.95895528793335,"744":-5.4826459884643555,"745":2.1069681644439697,"746":-0.39576655626296997,"747":-3.585502862930298,"748":-3.4664745330810547,"749":-0.1351962834596634,"750":6.904107570648193,"751":1.4757283926010132,"752":-2.800908088684082,"753":-0.47569677233695984,"754":0.5990539789199829,"755":0.7615321278572083,"756":-3.7676079273223877,"757":-3.7394070625305176,"758":5.626916408538818,"759":3.605297803878784,"760":-0.012260664254426956,"761":-5.390413284301758,"762":4.502980709075928,"763":-4.90241003036499,"764":0.18765327334403992,"765":2.8250977993011475,"766":2.796862840652466,"767":-2.8963675498962402,"768":0.9500558376312256,"769":-5.810737609863281,"770":-3.4727835655212402,"771":-2.6363472938537598,"772":-3.9708430767059326,"773":8.374547958374023,"774":4.8871636390686035,"775":-5.863100528717041,"776":-0.8727615475654602,"777":0.8935176134109497,"778":0.7033216953277588,"779":-4.121576309204102,"780":3.6729445457458496,"781":5.750039100646973,"782":2.8916757106781006,"783":-9.80815315246582,"784":-4.984521389007568,"785":7.740614891052246,"786":-6.430818557739258,"787":6.713727951049805,"788":-8.552621841430664,"789":-1.3765265941619873,"790":-5.4772114753723145,"791":7.164645671844482,"792":-3.0960030555725098,"793":-4.2759318351745605,"794":-9.61977481842041,"795":-7.547500133514404,"796":9.620911598205566,"797":-6.072267055511475,"798":-9.058246612548828,"799":-1.495287299156189,"800":3.9847452640533447,"801":-3.555405855178833,"802":-4.0047831535339355,"803":-2.488452196121216,"804":-3.8622043132781982,"805":-5.553356170654297,"806":3.418823480606079,"807":-2.9816722869873047,"808":-4.888612270355225,"809":-3.746614933013916,"810":4.812584400177002,"811":-7.6236724853515625,"812":0.8438304662704468,"813":6.10634183883667,"814":-0.9081489443778992,"815":0.2644850015640259,"816":-1.6692962646484375,"817":-1.7644003629684448,"818":0.7753459811210632,"819":1.4852577447891235,"820":-0.2175258994102478,"821":-2.237678050994873,"822":2.5871944427490234,"823":-1.7783399820327759,"824":1.1436353921890259,"825":1.7253329753875732,"826":-1.847357153892517,"827":-1.4043467044830322,"828":-1.9493160247802734,"829":1.3743234872817993,"830":0.6092280149459839,"831":-0.8350499272346497,"832":0.4124373495578766,"833":1.4445866346359253,"834":1.2442235946655273,"835":-0.044017013162374496,"836":-0.53286212682724,"837":-4.519586086273193,"838":0.8311688899993896,"839":-1.9514838457107544,"840":0.23215454816818237,"841":1.4114010334014893,"842":2.252131700515747,"843":-1.0364576578140259,"844":-0.26638567447662354,"845":-2.7995553016662598,"846":1.2410730123519897,"847":4.1352996826171875,"848":-0.05374123901128769,"849":-1.6598422527313232,"850":1.262397289276123,"851":0.9561712741851807,"852":-2.569795608520508,"853":3.0444729328155518,"854":0.5716889500617981,"855":-3.34356427192688,"856":0.37378647923469543,"857":-0.5768426656723022,"858":-0.6457523703575134,"859":1.723023533821106,"860":1.3334013223648071,"861":0.017029790207743645,"862":-2.135862350463867,"863":2.2280941009521484,"864":4.261118412017822,"865":-0.4426082968711853,"866":-1.6692274808883667,"867":-2.0595743656158447,"868":-0.7045719623565674,"869":1.4619829654693604,"870":-0.48440635204315186,"871":-2.0590481758117676,"872":0.6415666341781616,"873":1.1936097145080566,"874":0.17487138509750366,"875":0.2678690552711487,"876":0.7678623199462891,"877":3.221588134765625,"878":0.7692356109619141,"879":0.6866466999053955,"880":-0.5012499094009399,"881":-0.5779904723167419,"882":0.03072979487478733,"883":0.06684758514165878,"884":1.9390007257461548,"885":-3.2903127670288086,"886":1.794508695602417,"887":-2.4146862030029297,"888":-0.37700366973876953,"889":1.444588303565979,"890":-2.552720069885254,"891":0.8193939924240112,"892":0.5604457259178162,"893":1.4321770668029785,"894":-1.2488994598388672,"895":-0.026199212297797203,"896":-1.8626093864440918,"897":-0.10054346174001694,"898":0.1292930543422699,"899":-0.2123030126094818,"900":-1.87993323802948,"901":0.4908582270145416,"902":-1.3221842050552368,"903":-1.1024070978164673,"904":2.7814269065856934,"905":2.855623483657837,"906":0.6164361238479614,"907":0.22122371196746826,"908":0.7454346418380737,"909":1.1482404470443726,"910":1.506463646888733,"911":2.3798153400421143,"912":1.0498582124710083,"913":-4.270563125610352,"914":-0.5308580994606018,"915":1.0206618309020996,"916":-0.08407852798700333,"917":1.7807695865631104,"918":0.9975993633270264,"919":-2.481163501739502,"920":-1.3890972137451172,"921":-1.063600778579712,"922":0.429213285446167,"923":-0.13537177443504333,"924":3.2497951984405518,"925":0.6358745098114014,"926":1.097560167312622,"927":-1.0958142280578613,"928":-0.9915731549263,"929":2.4347188472747803,"930":2.7451846599578857,"931":-2.2544963359832764,"932":-0.9755889773368835,"933":-1.4292030334472656,"934":0.25785964727401733,"935":-0.19080869853496552,"936":2.1247448921203613,"937":3.7384536266326904,"938":-0.26064056158065796,"939":-2.290529727935791,"940":-0.9212203621864319,"941":1.0970354080200195,"942":1.5311814546585083,"943":1.9676250219345093,"944":0.5714162588119507,"945":-0.5527947545051575,"946":1.2832057476043701,"947":-0.5631714463233948,"948":1.8513585329055786,"949":2.489825963973999,"950":1.102375864982605,"951":-1.3899623155593872,"952":-1.498252034187317,"953":-1.8357317447662354,"954":0.9285584688186646,"955":1.0552345514297485,"956":-0.6174412965774536,"957":-0.5990630388259888,"958":0.049465615302324295,"959":0.3306863307952881,"960":1.696061134338379,"961":-2.7625174522399902,"962":-0.2184818536043167,"963":-0.2851303815841675,"964":-0.6829032301902771,"965":-3.136765241622925,"966":-0.16353586316108704,"967":-1.2029356956481934,"968":2.037703514099121,"969":2.119083881378174,"970":-1.4326025247573853,"971":1.354150414466858,"972":1.710965633392334,"973":-2.6615073680877686,"974":-0.6630815267562866,"975":0.17699381709098816,"976":2.541792392730713,"977":2.012765645980835,"978":4.57814359664917,"979":2.8888678550720215,"980":1.2483961582183838,"981":-0.03977971896529198,"982":-3.257728338241577,"983":-2.025965452194214,"984":-2.3487565517425537,"985":2.7057547569274902,"986":-1.157338261604309,"987":-0.41797104477882385,"988":-0.38397639989852905,"989":-0.7669916152954102,"990":0.013846286572515965,"991":0.9463595151901245,"992":-2.4878737926483154,"993":3.4697916507720947,"994":2.218674898147583,"995":2.452511787414551,"996":-0.7773175239562988,"997":-0.7399340867996216,"998":3.1715173721313477,"999":-3.380511999130249,"1000":-0.5413012504577637,"1001":-2.991384506225586,"1002":1.5361605882644653,"1003":-0.6363434791564941,"1004":-0.2976374924182892,"1005":-2.0085012912750244,"1006":0.017961833626031876,"1007":-1.8920695781707764,"1008":0.9980738162994385,"1009":6.018660068511963,"1010":1.9688743352890015,"1011":-2.4991514682769775,"1012":-0.2174561470746994,"1013":-3.309077262878418,"1014":0.8719010353088379,"1015":2.953226327896118,"1016":-2.2054872512817383,"1017":-0.9904128313064575,"1018":-5.987773895263672,"1019":-1.294650912284851,"1020":-0.2678494155406952,"1021":1.2921117544174194,"1022":-0.005726661998778582,"1023":0.46316075325012207,"1024":-1.4704210758209229,"1025":-0.42216238379478455,"1026":-1.6185340881347656,"1027":-2.025585412979126,"1028":1.0332071781158447,"1029":0.5024164915084839,"1030":2.6111886501312256,"1031":-1.6366080045700073,"1032":-2.8751866817474365,"1033":1.0666775703430176,"1034":1.795629620552063,"1035":-1.7506955862045288,"1036":-2.087857484817505,"1037":-0.2658616006374359,"1038":2.283586263656616,"1039":4.7215142250061035,"1040":-1.0714360475540161,"1041":0.31633514165878296,"1042":-0.46482232213020325,"1043":0.5256032943725586,"1044":2.867528200149536,"1045":1.0037295818328857,"1046":2.899977445602417,"1047":0.03431706130504608,"1048":2.107962131500244,"1049":0.03756432607769966,"1050":-0.35201019048690796,"1051":-2.7223172187805176,"1052":1.4662895202636719,"1053":7.759489059448242,"1054":1.4935674667358398,"1055":0.7674970626831055,"1056":2.3893110752105713,"1057":1.3426426649093628,"1058":-0.5624720454216003,"1059":-1.3592334985733032,"1060":-0.39613479375839233,"1061":0.4058220684528351,"1062":-2.892866611480713,"1063":0.11957941204309464,"1064":0.7655546069145203,"1065":4.989502906799316,"1066":0.01702461950480938,"1067":-1.4630308151245117,"1068":-2.5829341411590576,"1069":-2.213744878768921,"1070":0.013391501270234585,"1071":4.7771100997924805,"1072":-3.7231028079986572,"1073":2.316237211227417,"1074":-1.4237682819366455,"1075":-2.7571253776550293,"1076":3.2088117599487305,"1077":-1.0784810781478882,"1078":-2.230736017227173,"1079":-2.3007938861846924,"1080":-3.279195547103882,"1081":-2.885741949081421,"1082":2.4735803604125977,"1083":-0.4775537848472595,"1084":1.2378499507904053,"1085":3.0015437602996826,"1086":1.7786574363708496,"1087":-3.795780658721924,"1088":-1.5973187685012817,"1089":-1.0886409282684326,"1090":1.6559809446334839,"1091":1.1379203796386719,"1092":1.9611464738845825,"1093":-0.2949700951576233,"1094":1.4315764904022217,"1095":5.2423415184021,"1096":-0.5596119165420532,"1097":0.32613059878349304,"1098":-1.2987221479415894,"1099":3.6376149654388428,"1100":1.401524305343628,"1101":2.7727012634277344,"1102":-3.2106616497039795,"1103":-1.343040943145752,"1104":0.3299332559108734,"1105":-0.4592415988445282,"1106":-0.4573202431201935,"1107":-1.2080318927764893,"1108":1.7862894535064697,"1109":1.5605436563491821,"1110":-1.451664924621582,"1111":0.8886186480522156,"1112":-1.090342402458191,"1113":-2.68086838722229,"1114":-1.3830461502075195,"1115":1.42555570602417,"1116":-2.071727752685547,"1117":-3.4262945652008057,"1118":-2.365488052368164,"1119":-3.236497163772583,"1120":2.638854742050171,"1121":0.8066122531890869,"1122":1.9881386756896973,"1123":0.1280481368303299,"1124":0.07632750272750854,"1125":-1.4817548990249634,"1126":1.0523055791854858,"1127":-0.3150853216648102,"1128":-1.936248540878296,"1129":0.6472079753875732,"1130":0.7718614339828491,"1131":2.283102512359619,"1132":-0.6002960205078125,"1133":-0.756374180316925,"1134":-1.7102123498916626,"1135":-0.510012149810791,"1136":1.9007880687713623,"1137":-0.6218207478523254,"1138":3.6188395023345947,"1139":-0.7655624151229858,"1140":-2.491619348526001,"1141":-2.341932535171509,"1142":4.640772342681885,"1143":5.247679233551025,"1144":-0.7408831119537354,"1145":0.17341357469558716,"1146":-0.37986746430397034,"1147":0.13436125218868256,"1148":-1.1083259582519531,"1149":-0.9272551536560059,"1150":2.2943637371063232,"1151":1.135902762413025,"1152":0.04339582473039627,"1153":-0.3034457862377167,"1154":-3.103074789047241,"1155":2.164597749710083,"1156":0.26624199748039246,"1157":0.7456924915313721,"1158":-1.0648791790008545,"1159":-1.1941477060317993,"1160":0.6312727332115173,"1161":1.5953775644302368,"1162":0.35877999663352966,"1163":-0.21653658151626587,"1164":-2.3122875690460205,"1165":-0.8044909834861755,"1166":-1.6282998323440552,"1167":-0.06386754661798477,"1168":1.1499195098876953,"1169":0.5066214203834534,"1170":-1.3539174795150757,"1171":0.29656893014907837,"1172":-0.18495027720928192,"1173":0.35622626543045044,"1174":0.2760280966758728,"1175":-0.24455726146697998,"1176":1.3689981698989868,"1177":1.1176949739456177,"1178":0.16450946033000946,"1179":-2.8967196941375732,"1180":1.4123412370681763,"1181":0.9240043759346008,"1182":-1.0671331882476807,"1183":1.8434116840362549,"1184":-1.14940345287323,"1185":-2.2464561462402344,"1186":1.6445859670639038,"1187":-1.7578181028366089,"1188":2.370715379714966,"1189":-1.8550623655319214,"1190":2.386827230453491,"1191":1.8462246656417847,"1192":-2.639148473739624,"1193":-0.8015516400337219,"1194":-0.22742417454719543,"1195":0.0635664239525795,"1196":0.4746452867984772,"1197":-5.601852893829346,"1198":-1.6354758739471436,"1199":0.44711142778396606,"1200":-0.6765949726104736,"1201":0.1447264850139618,"1202":-1.584342360496521,"1203":-2.3026983737945557,"1204":0.22905024886131287,"1205":-2.3247604370117188,"1206":-0.3761717677116394,"1207":0.9563423991203308,"1208":-1.0049080848693848,"1209":0.4209050238132477,"1210":1.5977832078933716,"1211":1.3261111974716187,"1212":4.115433216094971,"1213":4.785393714904785,"1214":-0.5797327756881714,"1215":1.8406732082366943,"1216":-1.547027349472046,"1217":2.0685372352600098,"1218":-0.494091272354126,"1219":2.137028694152832,"1220":1.1825581789016724,"1221":-0.7798847556114197,"1222":2.233015537261963,"1223":-1.9401272535324097,"1224":2.256422996520996,"1225":2.050544500350952,"1226":-0.8716706037521362,"1227":2.5963475704193115,"1228":-0.885901689529419,"1229":-0.43714502453804016,"1230":-1.2991069555282593,"1231":2.112896680831909,"1232":1.19196355342865,"1233":-2.578331708908081,"1234":-1.9780185222625732,"1235":0.48981648683547974,"1236":2.8190269470214844,"1237":3.5816235542297363,"1238":2.0934720039367676,"1239":3.335667133331299,"1240":1.106231451034546,"1241":-3.981698513031006,"1242":0.47027814388275146,"1243":0.9828738570213318,"1244":-0.7553218007087708,"1245":-1.3631541728973389,"1246":1.944928526878357,"1247":-1.1015619039535522,"1248":1.2855521440505981,"1249":1.9867217540740967,"1250":2.431621551513672,"1251":0.4751420021057129,"1252":-2.279953718185425,"1253":1.1684824228286743,"1254":-0.8564727306365967,"1255":4.049681186676025,"1256":0.1614917367696762,"1257":0.6681637167930603,"1258":-0.8852185606956482,"1259":3.3510379791259766,"1260":1.4937816858291626,"1261":-0.918536365032196,"1262":-1.4886999130249023,"1263":-0.6142100691795349,"1264":-1.835532546043396,"1265":0.006108658388257027,"1266":-1.8433974981307983,"1267":0.2505905330181122,"1268":3.0712437629699707,"1269":2.477895975112915,"1270":-0.6621541380882263,"1271":0.04886075481772423,"1272":1.450939416885376,"1273":-1.2273890972137451,"1274":1.5700973272323608,"1275":-0.7552782297134399,"1276":0.3625514805316925,"1277":-2.3931450843811035,"1278":5.190646171569824,"1279":2.3296468257904053,"1280":1.098907470703125,"1281":-0.8725858926773071,"1282":-0.8633446097373962,"1283":4.2174882888793945,"1284":2.8871185779571533,"1285":1.7433807849884033,"1286":2.6303765773773193,"1287":0.08340085297822952,"1288":2.11357045173645,"1289":-5.365425109863281,"1290":-0.039118193089962006,"1291":-4.901806354522705,"1292":-1.9603596925735474,"1293":-1.0264784097671509,"1294":-2.748552083969116,"1295":1.7150089740753174,"1296":-1.070622444152832,"1297":-1.4763401746749878,"1298":0.5588927268981934,"1299":2.050046443939209,"1300":3.560286521911621,"1301":-1.8723787069320679,"1302":1.017120599746704,"1303":-1.8665691614151,"1304":-0.2474367469549179,"1305":1.3146069049835205,"1306":-1.6189005374908447,"1307":-2.5449275970458984,"1308":-3.7735347747802734,"1309":-1.162405252456665,"1310":2.6419782638549805,"1311":-0.8493686318397522,"1312":-1.334044098854065,"1313":2.558626890182495,"1314":0.5009262561798096,"1315":-2.498354196548462,"1316":1.7735700607299805,"1317":-3.269632577896118,"1318":-0.8190299868583679,"1319":0.24038556218147278,"1320":0.8270379900932312,"1321":-2.3009140491485596,"1322":1.2703710794448853,"1323":5.588097095489502,"1324":1.0195523500442505,"1325":1.71267569065094,"1326":1.32383394241333,"1327":0.8747344017028809,"1328":-1.4836366176605225,"1329":1.0779979228973389,"1330":1.394618272781372,"1331":-3.7239835262298584,"1332":-1.5784685611724854,"1333":-0.7099154591560364,"1334":-0.043235164135694504,"1335":2.798614501953125,"1336":1.332136631011963,"1337":-1.7615036964416504,"1338":-5.62179708480835,"1339":-0.8125153183937073,"1340":2.3439340591430664,"1341":0.10914506018161774,"1342":0.5010553598403931,"1343":-1.8792028427124023,"1344":-0.47218140959739685,"1345":-2.301581621170044,"1346":-6.375083923339844,"1347":5.792328834533691,"1348":-2.297938823699951,"1349":-0.1458514928817749,"1350":-0.4925438165664673,"1351":0.7535238265991211,"1352":3.41874098777771,"1353":-4.7553019523620605,"1354":-3.9031596183776855,"1355":3.8459701538085938,"1356":-1.0025068521499634,"1357":-1.7338932752609253,"1358":-3.8496623039245605,"1359":-1.2076973915100098,"1360":2.070265769958496,"1361":-1.5208553075790405,"1362":2.750777244567871,"1363":3.996211528778076,"1364":2.074040412902832,"1365":3.757197380065918,"1366":-1.8933603763580322,"1367":-0.6123213768005371,"1368":2.8570241928100586,"1369":1.8458237648010254,"1370":5.248910427093506,"1371":-4.262643337249756,"1372":-3.6144986152648926,"1373":0.7533503174781799,"1374":2.379171848297119,"1375":3.9991097450256348,"1376":-0.7099478244781494,"1377":-4.540893077850342,"1378":-2.1456336975097656,"1379":0.10409802198410034,"1380":0.2784734070301056,"1381":-2.8179359436035156,"1382":0.4097668528556824,"1383":-2.7367265224456787,"1384":1.6652534008026123,"1385":-2.062222480773926,"1386":-3.5783603191375732,"1387":0.34312671422958374,"1388":2.049748659133911,"1389":0.8770082592964172,"1390":0.02743145450949669,"1391":0.30363020300865173,"1392":0.02090601623058319,"1393":1.860220193862915,"1394":-0.0985846146941185,"1395":-1.3542147874832153,"1396":1.6888422966003418,"1397":2.7535688877105713,"1398":-0.4120202362537384,"1399":-1.893436074256897,"1400":0.9418970942497253,"1401":-1.5075350999832153,"1402":-1.099109172821045,"1403":0.4122001826763153,"1404":0.7060796618461609,"1405":3.938310384750366,"1406":-1.154313325881958,"1407":0.7458266019821167,"1408":-0.13812877237796783,"1409":-1.2770943641662598,"1410":-1.8239595890045166,"1411":2.2937023639678955,"1412":4.612226963043213,"1413":-0.40471982955932617,"1414":4.058548450469971,"1415":-1.5351322889328003,"1416":2.409024238586426,"1417":-2.318739414215088,"1418":2.059945821762085,"1419":0.003137432038784027,"1420":0.2881302833557129,"1421":-1.921335220336914,"1422":0.6536939740180969,"1423":0.4476783573627472,"1424":1.2332085371017456,"1425":-1.211372971534729,"1426":-6.040868759155273,"1427":2.7467713356018066,"1428":-0.11676272749900818,"1429":-0.5893734097480774,"1430":-0.591789722442627,"1431":-1.4459697008132935,"1432":1.553403377532959,"1433":0.7972804307937622,"1434":-1.607864260673523,"1435":-2.6416659355163574,"1436":1.8118867874145508,"1437":-0.9781734347343445,"1438":0.4942266643047333,"1439":-0.020710917189717293,"1440":-1.4089066982269287,"1441":-0.661594569683075,"1442":-2.370671272277832,"1443":1.1291637420654297,"1444":0.4798875153064728,"1445":3.5679636001586914,"1446":0.021693812683224678,"1447":1.7038599252700806,"1448":0.04886552691459656,"1449":0.9034589529037476,"1450":0.08773580193519592,"1451":-0.3608001172542572,"1452":2.222672939300537,"1453":0.1533634215593338,"1454":0.13109709322452545,"1455":-0.40036866068840027,"1456":-0.2808043360710144,"1457":-2.3211140632629395,"1458":0.5838091969490051,"1459":0.3563445508480072,"1460":-0.9753862619400024,"1461":0.6180423498153687,"1462":-2.1594510078430176,"1463":1.4466438293457031,"1464":-0.35891658067703247,"1465":1.8045657873153687,"1466":2.098594903945923,"1467":0.06540121138095856,"1468":-0.509516716003418,"1469":1.0841883420944214,"1470":-0.9807301163673401,"1471":1.0634623765945435,"1472":-3.3676352500915527,"1473":-1.9822964668273926,"1474":-1.0106738805770874,"1475":1.4950772523880005,"1476":-0.7978302240371704,"1477":-0.444970041513443,"1478":-3.5471127033233643,"1479":0.12660452723503113,"1480":-0.7506040930747986,"1481":0.35599979758262634,"1482":0.37868520617485046,"1483":-1.6712895631790161,"1484":0.505537211894989,"1485":-2.7045397758483887,"1486":-1.2476933002471924,"1487":-1.9452565908432007,"1488":3.827911853790283,"1489":-0.36729031801223755,"1490":0.20175212621688843,"1491":-0.5606817007064819,"1492":1.7444289922714233,"1493":-3.4474563598632812,"1494":-0.7425907254219055,"1495":-2.2256081104278564,"1496":-0.5407277941703796,"1497":-0.2771209478378296,"1498":-1.281684398651123,"1499":0.06964508444070816,"1500":1.621309757232666,"1501":1.8544806241989136,"1502":1.4118701219558716,"1503":-2.2871041297912598,"1504":-0.5368460416793823,"1505":0.2617743909358978,"1506":0.18921902775764465,"1507":0.3120282292366028,"1508":4.394376277923584,"1509":1.8640680313110352,"1510":6.670264720916748,"1511":-5.668162822723389,"1512":-3.655022382736206,"1513":3.0820045471191406,"1514":6.673684597015381,"1515":4.564806938171387,"1516":5.96740198135376,"1517":7.471859931945801,"1518":0.1082318052649498,"1519":-5.390788555145264,"1520":-3.393615245819092,"1521":7.442025184631348,"1522":0.9804340600967407,"1523":6.4661102294921875,"1524":-1.631658911705017,"1525":1.1965806484222412,"1526":5.248111248016357,"1527":-4.050728797912598,"1528":-5.054665565490723,"1529":3.7933640480041504,"1530":-7.863691806793213,"1531":-4.445293426513672,"1532":-1.3468796014785767,"1533":-4.383645057678223,"1534":-7.387343406677246,"1535":-2.2504332065582275,"1536":2.877927780151367,"1537":-1.2249984741210938,"1538":-1.4453243017196655,"1539":5.273047924041748,"1540":2.526658058166504,"1541":-6.374919414520264,"1542":2.968602418899536,"1543":0.39427393674850464,"1544":1.2417384386062622,"1545":-3.8125290870666504,"1546":-0.36664021015167236,"1547":-3.9925436973571777,"1548":-2.231180429458618,"1549":6.843804836273193,"1550":8.37824535369873,"1551":3.7415266036987305,"1552":1.9417569637298584,"1553":-4.467169284820557,"1554":-2.623170852661133,"1555":-8.718234062194824,"1556":3.80267071723938,"1557":-7.60055685043335,"1558":1.5759568214416504,"1559":-1.0753965377807617,"1560":-3.0406174659729004,"1561":-2.172759771347046,"1562":-6.547982215881348,"1563":9.918389320373535,"1564":7.049034595489502,"1565":7.779745578765869,"1566":3.7165958881378174,"1567":-2.1724278926849365,"1568":-0.09971810132265091,"1569":0.5244024395942688,"1570":-2.490525245666504,"1571":1.3764840364456177,"1572":1.6132457256317139,"1573":0.4900989532470703,"1574":3.43821120262146,"1575":0.3556998372077942,"1576":-0.8893452882766724,"1577":-1.047366738319397,"1578":2.8239917755126953,"1579":1.8546186685562134,"1580":-2.8325400352478027,"1581":2.5458431243896484,"1582":2.52121639251709,"1583":0.6255438327789307,"1584":-2.033919334411621,"1585":-5.924624919891357,"1586":-0.9035718441009521,"1587":-3.8445377349853516,"1588":-4.841616630554199,"1589":-2.079925775527954,"1590":-2.942216157913208,"1591":-0.20838625729084015,"1592":1.904061198234558,"1593":0.6576149463653564,"1594":3.8063395023345947,"1595":-1.1481550931930542,"1596":0.1804387867450714,"1597":0.8282875418663025,"1598":-0.20792731642723083,"1599":-0.028794031590223312,"1600":2.5866851806640625,"1601":2.9346094131469727,"1602":2.408104419708252,"1603":-2.654127836227417,"1604":0.5482780933380127,"1605":-3.816434383392334,"1606":-1.4381608963012695,"1607":3.200883626937866,"1608":-0.7974509000778198,"1609":-1.162013053894043,"1610":-0.4618541896343231,"1611":0.4910159707069397,"1612":0.8681224584579468,"1613":-2.012580394744873,"1614":1.5617938041687012,"1615":-0.45986223220825195,"1616":0.8930608034133911,"1617":-2.3136205673217773,"1618":1.9527008533477783,"1619":2.002509593963623,"1620":-0.13569651544094086,"1621":3.6927971839904785,"1622":-3.2976815700531006,"1623":4.382007122039795,"1624":-1.7258344888687134,"1625":3.0268704891204834,"1626":-0.5585100650787354,"1627":-0.20147396624088287,"1628":1.902369499206543,"1629":-2.393026828765869,"1630":-0.4594998359680176,"1631":3.9841811656951904,"1632":-0.624058723449707,"1633":0.5871325731277466,"1634":-0.8400571346282959,"1635":-1.2521110773086548,"1636":-0.2208065539598465,"1637":1.441454529762268,"1638":-0.4907563328742981,"1639":-1.7911626100540161,"1640":-1.4883451461791992,"1641":-1.7234892845153809,"1642":3.1003849506378174,"1643":-0.8332133889198303,"1644":0.6139575839042664,"1645":-1.839196801185608,"1646":3.984572410583496,"1647":0.25762680172920227,"1648":-0.3071931302547455,"1649":-1.5053684711456299,"1650":0.717706024646759,"1651":-3.121405839920044,"1652":0.3196732699871063,"1653":1.6955686807632446,"1654":0.5663996338844299,"1655":-0.48020827770233154,"1656":-0.26626884937286377,"1657":-2.48494815826416,"1658":-0.9479095339775085,"1659":1.3112181425094604,"1660":-0.7562688589096069,"1661":-1.401810646057129,"1662":0.8206090927124023,"1663":0.33879029750823975,"1664":-0.48179295659065247,"1665":0.40602928400039673,"1666":0.8759110569953918,"1667":-2.2583439350128174,"1668":0.07962790876626968,"1669":0.7152705788612366,"1670":-0.2804083526134491,"1671":0.23100334405899048,"1672":2.797741174697876,"1673":-1.021720290184021,"1674":-1.0121440887451172,"1675":0.37010079622268677,"1676":-0.8658910989761353,"1677":0.053689464926719666,"1678":0.7921397686004639,"1679":-2.5614821910858154,"1680":-0.42201748490333557,"1681":0.17417824268341064,"1682":-2.5294978618621826,"1683":6.1031718254089355,"1684":1.2678792476654053,"1685":-2.151855230331421,"1686":-2.048224925994873,"1687":-4.710728645324707,"1688":2.600187301635742,"1689":3.0630910396575928,"1690":3.1575326919555664,"1691":-2.4971513748168945,"1692":2.0500738620758057,"1693":-2.383654832839966,"1694":0.6089010834693909,"1695":1.6092815399169922,"1696":1.3103346824645996,"1697":-8.33154010772705,"1698":-1.4582737684249878,"1699":-5.028458595275879,"1700":0.7989310026168823,"1701":6.698659420013428,"1702":-0.06275961548089981,"1703":5.414323329925537,"1704":3.83860182762146,"1705":3.588710069656372,"1706":-1.6221522092819214,"1707":-10.661170959472656,"1708":7.338258743286133,"1709":4.006278991699219,"1710":-2.720844268798828,"1711":4.652523517608643,"1712":1.1760791540145874,"1713":-3.1515393257141113,"1714":-5.097472667694092,"1715":1.87348473072052,"1716":1.6661598682403564,"1717":2.639258623123169,"1718":0.19330152869224548,"1719":-0.25631147623062134,"1720":-4.489814281463623,"1721":1.7025142908096313,"1722":0.9195727109909058,"1723":0.8743708729743958,"1724":-3.4396097660064697,"1725":-2.001561164855957,"1726":4.661640167236328,"1727":-0.38876840472221375,"1728":7.981586456298828,"1729":1.0144128799438477,"1730":6.456120491027832,"1731":2.3110883235931396,"1732":-2.324098587036133,"1733":5.385969638824463,"1734":0.8054612874984741,"1735":2.773165702819824,"1736":-1.5041890144348145,"1737":-5.9568634033203125,"1738":-5.099186420440674,"1739":0.9432041645050049,"1740":6.037533760070801,"1741":0.07807861268520355,"1742":3.541804552078247,"1743":-5.45945405960083,"1744":-4.802887439727783,"1745":2.019686222076416,"1746":2.0681333541870117,"1747":-2.2434587478637695,"1748":3.812751054763794,"1749":8.909249305725098,"1750":1.5479193925857544,"1751":-2.745427131652832,"1752":-0.2792903482913971,"1753":1.0256379842758179,"1754":3.2579872608184814,"1755":1.1904528141021729,"1756":1.9442304372787476,"1757":-5.780113220214844,"1758":-2.3671398162841797,"1759":-1.901280164718628,"1760":-7.908572196960449,"1761":7.26863956451416,"1762":-1.226989984512329,"1763":1.5462080240249634,"1764":-2.3068490028381348,"1765":-3.507031202316284,"1766":-1.7757471799850464,"1767":8.423800468444824,"1768":-4.779191493988037,"1769":-4.936639785766602,"1770":-0.7975139021873474,"1771":-0.7147648930549622,"1772":-1.0977822542190552,"1773":-0.035834118723869324,"1774":0.30016401410102844,"1775":0.14540110528469086,"1776":-1.2113116979599,"1777":-3.9004459381103516,"1778":-3.3178420066833496,"1779":-6.282723903656006,"1780":1.652685523033142,"1781":4.593200206756592,"1782":4.123729228973389,"1783":1.1736921072006226,"1784":-3.753798723220825,"1785":-2.0449607372283936,"1786":1.3124760389328003,"1787":-1.300736665725708,"1788":0.9038992524147034,"1789":-2.320688486099243,"1790":0.20711968839168549,"1791":-0.1949087381362915,"1792":-0.6222461462020874,"1793":0.1200522929430008,"1794":-1.9491206407546997,"1795":0.8916364908218384,"1796":4.090244770050049,"1797":-1.2121667861938477,"1798":0.7499990463256836,"1799":0.5198491215705872,"1800":7.2538347244262695,"1801":-11.163524627685547,"1802":6.216573715209961,"1803":-0.5626024007797241,"1804":5.8014702796936035,"1805":-0.47078177332878113,"1806":7.92327880859375,"1807":3.886981725692749,"1808":-1.2907475233078003,"1809":-0.7056124210357666,"1810":0.6472877264022827,"1811":6.768738269805908,"1812":-0.7211471199989319,"1813":6.065135478973389,"1814":0.7142804861068726,"1815":-1.4895466566085815,"1816":13.299798011779785,"1817":4.920619964599609,"1818":2.6439402103424072,"1819":-5.361869812011719,"1820":-8.480295181274414,"1821":-7.417552947998047,"1822":-3.770829916000366,"1823":-8.940953254699707,"1824":-3.0918328762054443,"1825":-5.076638698577881,"1826":-3.5399348735809326,"1827":3.072411298751831,"1828":0.42490354180336,"1829":1.7155134677886963,"1830":-5.750702381134033,"1831":-1.446040391921997,"1832":-1.612294316291809,"1833":6.342780590057373,"1834":-6.096888065338135,"1835":-1.5120676755905151,"1836":2.850950002670288,"1837":-6.081287860870361,"1838":1.4617754220962524,"1839":6.548807144165039,"1840":4.090324878692627,"1841":-6.287844181060791,"1842":8.25870418548584,"1843":-4.6955246925354,"1844":-7.787663459777832,"1845":-7.594931602478027,"1846":8.163484573364258,"1847":-8.426630973815918,"1848":5.721186637878418,"1849":6.010795593261719,"1850":1.2807581424713135,"1851":1.084674596786499,"1852":-3.32942533493042,"1853":6.907238483428955,"1854":6.6162543296813965,"1855":10.505277633666992,"1856":3.785130500793457,"1857":4.115961074829102,"1858":9.810202598571777,"1859":-7.294707298278809,"1860":-4.017540454864502,"1861":1.854503870010376,"1862":3.050299644470215,"1863":4.986079216003418,"1864":7.502013683319092,"1865":6.714006423950195,"1866":10.069835662841797,"1867":1.807257056236267,"1868":-1.8000770807266235,"1869":1.638340711593628,"1870":2.930387020111084,"1871":5.817422866821289,"1872":1.3021472692489624,"1873":-0.5883750915527344,"1874":-4.812316417694092,"1875":-1.8779277801513672,"1876":-4.0465989112854,"1877":1.4370273351669312,"1878":-2.827808380126953,"1879":2.1988441944122314,"1880":0.5543913245201111,"1881":-4.148528099060059,"1882":-2.0286386013031006,"1883":6.016326904296875,"1884":1.1123602390289307,"1885":5.124720096588135,"1886":3.1114888191223145,"1887":3.093386173248291,"1888":-3.379805088043213,"1889":-2.057769775390625,"1890":2.573669910430908,"1891":-4.334765434265137,"1892":-0.23259654641151428,"1893":-14.03364086151123,"1894":-4.240091323852539,"1895":-1.7310127019882202,"1896":-0.7089895606040955,"1897":1.8827074766159058,"1898":-2.2326180934906006,"1899":4.3715643882751465,"1900":-1.0559927225112915,"1901":-7.105576038360596,"1902":0.6965013742446899,"1903":-5.9819793701171875,"1904":6.104677677154541,"1905":0.3107869625091553,"1906":1.2043964862823486,"1907":-7.779820442199707,"1908":-0.993820309638977,"1909":-3.0089111328125,"1910":-7.026431560516357,"1911":-4.992204189300537,"1912":-1.0241698026657104,"1913":1.0987403392791748,"1914":-6.706912994384766,"1915":-1.224543809890747,"1916":0.46637865900993347,"1917":3.369511365890503,"1918":-3.3916139602661133,"1919":2.443071126937866,"1920":3.620053291320801,"1921":1.887230634689331,"1922":-2.8163678646087646,"1923":-3.7110378742218018,"1924":-5.798116683959961,"1925":-6.556090354919434,"1926":-0.08408048748970032,"1927":5.892487525939941,"1928":-0.2786141037940979,"1929":0.5422727465629578,"1930":7.307462215423584,"1931":0.6162084937095642,"1932":1.8372858762741089,"1933":-5.40334415435791,"1934":0.9319718480110168,"1935":-3.7535765171051025,"1936":-3.459993600845337,"1937":-2.4089717864990234,"1938":1.3240420818328857,"1939":1.08236825466156,"1940":-6.498128414154053,"1941":-0.4413156807422638,"1942":-0.8295196294784546,"1943":-5.035579204559326,"1944":3.863469362258911,"1945":-4.181014537811279,"1946":-1.1913576126098633,"1947":-2.540137767791748,"1948":-2.34317684173584,"1949":8.205066680908203,"1950":3.3748295307159424,"1951":-0.6231819987297058,"1952":-0.19661809504032135,"1953":4.8051018714904785,"1954":-3.2655224800109863,"1955":0.9908450841903687,"1956":3.828890800476074,"1957":-6.388019561767578,"1958":8.241307258605957,"1959":3.785048484802246,"1960":-2.377256155014038,"1961":3.2320196628570557,"1962":-5.877624034881592,"1963":-6.842289924621582,"1964":-5.673530578613281,"1965":0.6807085871696472,"1966":0.8661566972732544,"1967":-2.0263240337371826,"1968":3.477621078491211,"1969":-0.5461349487304688,"1970":6.6028151512146,"1971":-2.3422296047210693,"1972":-4.29801082611084,"1973":-3.552131175994873,"1974":-0.8802687525749207,"1975":-3.354065418243408,"1976":3.1679439544677734,"1977":-0.07978232204914093,"1978":1.4696087837219238,"1979":-1.0225236415863037,"1980":-0.484430730342865,"1981":0.5102241635322571,"1982":-0.7660696506500244,"1983":2.6859982013702393,"1984":-0.49689367413520813,"1985":-1.5033413171768188,"1986":2.925835371017456,"1987":3.3404717445373535,"1988":2.6868844032287598,"1989":-2.5239222049713135,"1990":0.6863762140274048,"1991":2.330265760421753,"1992":0.4784272015094757,"1993":0.606982946395874,"1994":4.819651126861572,"1995":-0.6504316329956055,"1996":2.496748685836792,"1997":-0.6956656575202942,"1998":-3.675847291946411,"1999":1.050586462020874,"2000":-5.69587516784668,"2001":-2.5142416954040527,"2002":-2.1819875240325928,"2003":-0.273734450340271,"2004":-0.26626282930374146,"2005":-1.1732077598571777,"2006":-3.173320770263672,"2007":-1.3780111074447632,"2008":-3.285263776779175,"2009":3.53818678855896,"2010":3.5210464000701904,"2011":-2.7847018241882324,"2012":2.221975803375244,"2013":-1.5988916158676147,"2014":-1.055889368057251,"2015":3.733527898788452,"2016":-0.3199220597743988,"2017":-1.6297128200531006,"2018":-2.5038628578186035,"2019":-0.4647500514984131,"2020":2.1562178134918213,"2021":0.9170898199081421,"2022":-0.1691082864999771,"2023":-1.213597297668457,"2024":-2.097734212875366,"2025":0.13304376602172852,"2026":-2.820596933364868,"2027":-1.5050232410430908,"2028":0.11500415951013565,"2029":2.832087993621826,"2030":2.920527219772339,"2031":-1.606034517288208,"2032":1.2839070558547974,"2033":0.7607350945472717,"2034":0.06796436011791229,"2035":-0.768672525882721,"2036":1.6921424865722656,"2037":2.4278135299682617,"2038":1.3463935852050781,"2039":1.6325583457946777,"2040":-0.020293738692998886,"2041":-0.85886150598526,"2042":0.9373388886451721,"2043":-3.4780726432800293,"2044":-0.6618085503578186,"2045":-1.0764402151107788,"2046":-2.7463796138763428,"2047":2.539525032043457,"2048":1.1404942274093628,"2049":-0.8053363561630249,"2050":0.4826885461807251,"2051":-3.3396551609039307,"2052":-0.7638006806373596,"2053":-0.7064008712768555,"2054":1.6144623756408691,"2055":0.7558064460754395,"2056":-0.8158950805664062,"2057":-3.0850980281829834,"2058":5.011538028717041,"2059":-0.4195265769958496,"2060":-0.6902337074279785,"2061":1.2028778791427612,"2062":0.2569200396537781,"2063":-1.352437973022461,"2064":1.1834241151809692,"2065":-0.12068778276443481,"2066":-0.6265722513198853,"2067":-0.596773624420166,"2068":-0.011079821735620499,"2069":-1.0288139581680298,"2070":-1.2329086065292358,"2071":-3.871044158935547,"2072":0.22450897097587585,"2073":3.768890142440796,"2074":0.3580876290798187,"2075":0.34440726041793823,"2076":-2.1568360328674316,"2077":-0.3496147394180298,"2078":-1.4553569555282593,"2079":-0.13932004570960999,"2080":-1.0086694955825806,"2081":-3.825610399246216,"2082":-3.1452689170837402,"2083":-2.6379244327545166,"2084":-1.632232904434204,"2085":0.13334208726882935,"2086":1.953739047050476,"2087":0.5274652242660522,"2088":-6.337419033050537,"2089":-3.212336778640747,"2090":0.797720730304718,"2091":1.1672815084457397,"2092":2.447758197784424,"2093":-3.8246679306030273,"2094":3.442739963531494,"2095":5.179230690002441,"2096":-0.3765634298324585,"2097":4.591445446014404,"2098":-8.406256675720215,"2099":-4.458223819732666,"2100":-1.176362156867981,"2101":0.8313698172569275,"2102":2.3851969242095947,"2103":5.548032283782959,"2104":9.613137245178223,"2105":3.6025705337524414,"2106":4.816815376281738,"2107":-1.836513876914978,"2108":3.1126248836517334,"2109":-9.229766845703125,"2110":1.1653339862823486,"2111":4.3675007820129395,"2112":-2.8260104656219482,"2113":6.423238754272461,"2114":-4.927857398986816,"2115":1.4993541240692139,"2116":-0.675500750541687,"2117":-8.095296859741211,"2118":2.7240445613861084,"2119":-7.150221347808838,"2120":4.587555885314941,"2121":-2.854489803314209,"2122":-3.5361671447753906,"2123":-3.63962459564209,"2124":-3.301431179046631,"2125":5.372638702392578,"2126":3.2542407512664795,"2127":3.444253444671631,"2128":-1.0805844068527222,"2129":0.22024090588092804,"2130":0.13113130629062653,"2131":-1.5189571380615234,"2132":-5.3059563636779785,"2133":-0.5278932452201843,"2134":-1.3205158710479736,"2135":-0.7284727096557617,"2136":-5.202062129974365,"2137":-2.8080074787139893,"2138":0.803822934627533,"2139":1.8859989643096924,"2140":8.151839256286621,"2141":-5.595848083496094,"2142":-0.35644984245300293,"2143":-8.669893264770508,"2144":-0.4401076138019562,"2145":2.8947248458862305,"2146":0.5835244059562683,"2147":4.085561752319336,"2148":0.8525042533874512,"2149":-0.4497246742248535,"2150":0.5304387807846069,"2151":1.0602360963821411,"2152":0.7910743951797485,"2153":-2.7164814472198486,"2154":1.5568512678146362,"2155":1.5764353275299072,"2156":-0.6570345759391785,"2157":-0.7091317772865295,"2158":0.4216993451118469,"2159":1.2153842449188232,"2160":0.7451022863388062,"2161":2.4391491413116455,"2162":-1.0984890460968018,"2163":-0.9617192149162292,"2164":0.8908132910728455,"2165":2.2204742431640625,"2166":3.437204360961914,"2167":0.9991320371627808,"2168":-1.4178801774978638,"2169":1.7310208082199097,"2170":0.743032693862915,"2171":-1.0942567586898804,"2172":-1.145851969718933,"2173":-1.0096874237060547,"2174":-0.08795242011547089,"2175":0.6981024146080017,"2176":2.402947425842285,"2177":-0.1680346429347992,"2178":0.35938021540641785,"2179":0.5480262041091919,"2180":-1.360473394393921,"2181":-2.9030673503875732,"2182":-2.7057507038116455,"2183":-3.689394474029541,"2184":-0.4293164312839508,"2185":-1.8308892250061035,"2186":-0.7056595683097839,"2187":1.4652796983718872,"2188":-2.8037099838256836,"2189":1.3287683725357056,"2190":-0.13356049358844757,"2191":-2.7414374351501465,"2192":-0.726113498210907,"2193":-0.3843962252140045,"2194":-0.8596798777580261,"2195":2.3276901245117188,"2196":3.1932263374328613,"2197":3.7714600563049316,"2198":1.061371922492981,"2199":6.626585960388184,"2200":-1.2773841619491577,"2201":0.12398859113454819,"2202":-4.566657066345215,"2203":3.5152127742767334,"2204":-4.948628902435303,"2205":-2.3236629962921143,"2206":-0.14949271082878113,"2207":-1.2258059978485107,"2208":-0.4599200487136841,"2209":0.43043801188468933,"2210":1.1217645406723022,"2211":2.216362476348877,"2212":4.817374229431152,"2213":-2.4720218181610107,"2214":1.1324708461761475,"2215":-4.128753185272217,"2216":-0.9076194167137146,"2217":1.3190985918045044,"2218":2.9196395874023438,"2219":1.9524815082550049,"2220":3.2052714824676514,"2221":-1.4680207967758179,"2222":-4.346912860870361,"2223":0.8325384259223938,"2224":-3.522646427154541,"2225":-0.8956148028373718,"2226":2.293987274169922,"2227":-2.1200063228607178,"2228":1.5573762655258179,"2229":-2.0798161029815674,"2230":-5.383549690246582,"2231":2.063032627105713,"2232":-5.566787242889404,"2233":-1.6326968669891357,"2234":-0.4863796830177307,"2235":-1.7923314571380615,"2236":-2.899465799331665,"2237":-1.654843807220459,"2238":0.8869880437850952,"2239":3.1845669746398926,"2240":-0.5814105272293091,"2241":3.1446831226348877,"2242":3.3782970905303955,"2243":-1.4736679792404175,"2244":1.4564603567123413,"2245":-1.7750372886657715,"2246":4.552825450897217,"2247":-2.8489012718200684,"2248":1.7044565677642822,"2249":-2.1463449001312256,"2250":-4.458536624908447,"2251":0.41108107566833496,"2252":1.9496197700500488,"2253":-6.287602424621582,"2254":-1.0661625862121582,"2255":-0.23340566456317902,"2256":0.15100550651550293,"2257":-4.662696838378906,"2258":-2.1982076168060303,"2259":-1.7775943279266357,"2260":5.8155694007873535,"2261":-1.2834337949752808,"2262":0.5870984792709351,"2263":1.1069331169128418,"2264":-3.0027310848236084,"2265":2.537308931350708,"2266":2.408601760864258,"2267":3.620619297027588,"2268":-3.5873048305511475,"2269":0.8853809833526611,"2270":-0.25729408860206604,"2271":-2.4782755374908447,"2272":-0.19622187316417694,"2273":3.2008934020996094,"2274":0.37215593457221985,"2275":-1.2126065492630005,"2276":-1.7185347080230713,"2277":-2.4012985229492188,"2278":-3.863600492477417,"2279":2.1247429847717285,"2280":-1.1983249187469482,"2281":0.8391512036323547,"2282":1.5048941373825073,"2283":0.6686719059944153,"2284":4.363433361053467,"2285":-0.4229828715324402,"2286":5.179666042327881,"2287":1.7737740278244019,"2288":4.1671223640441895,"2289":-6.25050687789917,"2290":0.7926059365272522,"2291":-0.8828083872795105,"2292":0.4137301743030548,"2293":0.1380731165409088,"2294":-0.47895222902297974,"2295":2.577359914779663,"2296":-1.907142996788025,"2297":2.70440936088562,"2298":-3.2817795276641846,"2299":2.500911235809326,"2300":1.7541537284851074,"2301":4.181371688842773,"2302":-0.5028518438339233,"2303":-4.870683193206787,"2304":-3.779047727584839,"2305":-0.34738612174987793,"2306":-3.0785717964172363,"2307":-0.058405470103025436,"2308":1.259253740310669,"2309":3.076169013977051,"2310":-4.271934509277344,"2311":2.663165807723999,"2312":-2.279616355895996,"2313":2.607761859893799,"2314":0.7802963852882385,"2315":-0.7607183456420898,"2316":-1.440332055091858,"2317":-2.5487875938415527,"2318":-4.623882293701172,"2319":-5.482358455657959,"2320":-0.44548681378364563,"2321":-2.3389363288879395,"2322":-2.0419468879699707,"2323":3.785921573638916,"2324":-3.0552375316619873,"2325":3.479604721069336,"2326":5.108771800994873,"2327":1.6236722469329834,"2328":-4.3119330406188965,"2329":2.832038164138794,"2330":-0.5749717950820923,"2331":2.0935263633728027,"2332":3.6365199089050293,"2333":-0.6010558009147644,"2334":-3.5810794830322266,"2335":2.5392138957977295,"2336":-1.3379186391830444,"2337":9.095315933227539,"2338":-1.9317865371704102,"2339":-1.3473619222640991,"2340":6.059039115905762,"2341":-3.956906795501709,"2342":-3.589076042175293,"2343":-0.6405536532402039,"2344":-3.771451473236084,"2345":4.45721960067749,"2346":-3.6444146633148193,"2347":0.47750163078308105,"2348":11.413712501525879,"2349":-6.528478145599365,"2350":2.304234027862549,"2351":1.7753887176513672,"2352":-1.3941882848739624,"2353":3.788861036300659,"2354":-3.412436008453369,"2355":4.098316669464111,"2356":-1.0129657983779907,"2357":-2.870530366897583,"2358":-1.3892662525177002,"2359":0.8228408694267273,"2360":-0.34209010004997253,"2361":-7.168949127197266,"2362":-1.774903416633606,"2363":4.170400142669678,"2364":1.2379828691482544,"2365":5.275327205657959,"2366":0.4690454304218292,"2367":-3.6875061988830566,"2368":-8.131661415100098,"2369":0.23229895532131195,"2370":-0.7052746415138245,"2371":-9.107183456420898,"2372":-5.420350074768066,"2373":0.15375059843063354,"2374":3.7946999073028564,"2375":0.22289220988750458,"2376":-0.9591479897499084,"2377":-3.984349489212036,"2378":-1.8549643754959106,"2379":0.6197006702423096,"2380":3.9199204444885254,"2381":-4.261699676513672,"2382":0.8199096322059631,"2383":-4.81890344619751,"2384":0.10333223640918732,"2385":-4.175894737243652,"2386":2.3018269538879395,"2387":-1.71793532371521,"2388":-4.1657023429870605,"2389":-0.9859869480133057,"2390":-4.7974982261657715,"2391":0.6154559254646301,"2392":3.533647298812866,"2393":2.6230015754699707,"2394":2.5491151809692383,"2395":-3.87369441986084,"2396":-1.3837989568710327,"2397":3.647425413131714,"2398":-3.2372519969940186,"2399":2.5071001052856445,"2400":3.7648587226867676,"2401":-2.683441162109375,"2402":-0.05815146118402481,"2403":0.8725185990333557,"2404":-0.34246453642845154,"2405":6.8726582527160645,"2406":-5.9494171142578125,"2407":3.6264238357543945,"2408":-1.7484402656555176,"2409":0.23505960404872894,"2410":2.093472719192505,"2411":-1.4547433853149414,"2412":-1.6310826539993286,"2413":-5.5435943603515625,"2414":-1.2022279500961304,"2415":-0.06617584824562073,"2416":-0.7852079272270203,"2417":-2.6570024490356445,"2418":3.4394359588623047,"2419":1.4812979698181152,"2420":0.25310224294662476,"2421":-0.4263955354690552,"2422":-4.6852545738220215,"2423":-1.5772719383239746,"2424":-0.3923138976097107,"2425":-1.1570872068405151,"2426":-2.0762548446655273,"2427":0.7124646306037903,"2428":4.69535493850708,"2429":2.444427967071533,"2430":-0.8650125861167908,"2431":1.867178201675415,"2432":-0.3829486072063446,"2433":-3.439823627471924,"2434":0.8909529447555542,"2435":-0.38141369819641113,"2436":-3.0668907165527344,"2437":2.13698673248291,"2438":-1.685971975326538,"2439":-1.5834685564041138,"2440":5.777036666870117,"2441":2.780702590942383,"2442":2.325570583343506,"2443":-6.871310710906982,"2444":4.315871238708496,"2445":-0.673556923866272,"2446":-4.026119709014893,"2447":1.7262285947799683,"2448":-0.2857457101345062,"2449":-0.5972174406051636,"2450":1.8791857957839966,"2451":6.2116265296936035,"2452":0.5183757543563843,"2453":4.002643585205078,"2454":-0.2644766569137573,"2455":3.305741310119629,"2456":7.411617755889893,"2457":-3.1206741333007812,"2458":3.593024969100952,"2459":4.863229751586914,"2460":3.0813000202178955,"2461":1.635129451751709,"2462":-0.9321134686470032,"2463":3.2795310020446777,"2464":1.3569419384002686,"2465":-1.138084053993225,"2466":1.195064663887024,"2467":2.668226957321167,"2468":4.660645961761475,"2469":1.3712080717086792,"2470":-6.500039100646973,"2471":-3.3254733085632324,"2472":-4.778614044189453,"2473":-0.6021842360496521,"2474":0.4806267321109772,"2475":1.416117548942566,"2476":-0.915057361125946,"2477":-4.82140588760376,"2478":-3.0383048057556152,"2479":2.674314022064209,"2480":-0.8620907068252563,"2481":-4.136261940002441,"2482":1.0596317052841187,"2483":-3.3128297328948975,"2484":1.769019603729248,"2485":-0.35007575154304504,"2486":-0.019846195355057716,"2487":0.9232658743858337,"2488":0.6402329802513123,"2489":1.5370889902114868,"2490":-3.247148275375366,"2491":-3.298940420150757,"2492":-1.9447740316390991,"2493":4.257822036743164,"2494":-0.07447598874568939,"2495":1.9130977392196655,"2496":2.114298105239868,"2497":-0.2649023234844208,"2498":1.7626912593841553,"2499":2.887458086013794,"2500":-0.17095395922660828,"2501":-3.1065919399261475,"2502":4.79413366317749,"2503":-0.5849682092666626,"2504":1.9644479751586914,"2505":-0.6557997465133667,"2506":-1.890653371810913,"2507":3.0204389095306396,"2508":0.8675817251205444,"2509":4.15083122253418,"2510":4.4612274169921875,"2511":3.323819875717163,"2512":-2.1126515865325928,"2513":-0.40244588255882263,"2514":2.3919010162353516,"2515":-0.7987308502197266,"2516":-0.16605186462402344,"2517":-3.511833667755127,"2518":3.6046533584594727,"2519":-0.5677675604820251,"2520":-0.4175480306148529,"2521":-3.0626907348632812,"2522":-3.578456401824951,"2523":-5.387826442718506,"2524":2.8368306159973145,"2525":0.8669623136520386,"2526":1.975724220275879,"2527":-2.497352123260498,"2528":-0.2295638471841812,"2529":1.2675552368164062,"2530":-0.4785955846309662,"2531":-1.5299290418624878,"2532":-3.530034303665161,"2533":1.9917901754379272,"2534":-0.17729118466377258,"2535":0.7908554077148438,"2536":-3.6613409519195557,"2537":-2.144756317138672,"2538":1.004012942314148,"2539":-6.563574314117432,"2540":-0.5018099546432495,"2541":1.5759665966033936,"2542":0.800503671169281,"2543":0.4847303330898285,"2544":4.121341228485107,"2545":0.8173633813858032,"2546":6.8789801597595215,"2547":-3.4685280323028564,"2548":-1.1069035530090332,"2549":-3.4869208335876465,"2550":0.870281457901001,"2551":1.1823066473007202,"2552":15.307388305664062,"2553":21.869888305664062,"2554":9.497387886047363,"2555":5.582829475402832,"2556":-13.434398651123047,"2557":-5.979843616485596,"2558":-8.478705406188965,"2559":3.734988212585449,"2560":-18.63527488708496,"2561":0.17283986508846283,"2562":15.416976928710938,"2563":12.619437217712402,"2564":4.381206035614014,"2565":7.476407527923584,"2566":-6.886716842651367,"2567":-12.57496166229248,"2568":-12.310131072998047,"2569":4.116755962371826,"2570":-6.254072189331055,"2571":-3.8846375942230225,"2572":-3.7847557067871094,"2573":-0.7746884822845459,"2574":-10.182820320129395,"2575":14.102575302124023,"2576":-17.857582092285156,"2577":-13.802706718444824,"2578":21.641164779663086,"2579":7.165743827819824,"2580":6.343803882598877,"2581":-0.4616326093673706,"2582":7.730114459991455,"2583":-0.8556143045425415,"2584":-3.5267486572265625,"2585":-5.989961624145508,"2586":18.38169288635254,"2587":-4.794280052185059,"2588":9.503089904785156,"2589":-6.890849590301514,"2590":0.36925965547561646,"2591":2.2180819511413574,"2592":2.124037742614746,"2593":8.280205726623535,"2594":0.8422785401344299,"2595":3.1024670600891113,"2596":3.532982110977173,"2597":17.291194915771484,"2598":10.960861206054688,"2599":3.9834482669830322,"2600":8.655731201171875,"2601":-1.4248313903808594,"2602":-4.3263115882873535,"2603":-4.795437812805176,"2604":1.8894270658493042,"2605":7.915576934814453,"2606":15.899992942810059,"2607":4.5318922996521,"2608":-9.627891540527344,"2609":1.4925765991210938,"2610":-0.8901616930961609,"2611":-5.513156890869141,"2612":-1.9758037328720093,"2613":4.216213226318359,"2614":-2.683485746383667,"2615":12.007933616638184,"2616":-5.177034854888916,"2617":9.942703247070312,"2618":-10.767133712768555,"2619":-0.17909829318523407,"2620":-1.4998372793197632,"2621":6.505034923553467,"2622":0.7858936786651611,"2623":-8.255865097045898,"2624":8.36060619354248,"2625":0.5210765600204468,"2626":5.337661266326904,"2627":3.9253106117248535,"2628":-2.9813029766082764,"2629":-13.046674728393555,"2630":2.2466108798980713,"2631":-12.70988941192627,"2632":5.122002601623535,"2633":8.623696327209473,"2634":4.604029655456543,"2635":12.78382396697998,"2636":0.6250964403152466,"2637":9.827828407287598,"2638":-3.4624366760253906,"2639":0.11427602916955948,"2640":-4.161908149719238,"2641":-6.229171276092529,"2642":5.937918663024902,"2643":10.334153175354004,"2644":-3.5009450912475586,"2645":-3.880497932434082,"2646":-9.534553527832031,"2647":11.347658157348633,"2648":1.0365684032440186,"2649":7.811771869659424,"2650":10.655940055847168,"2651":0.7614207863807678,"2652":-9.00218391418457,"2653":9.810711860656738,"2654":-2.589960813522339,"2655":5.572742462158203,"2656":-0.5164349675178528,"2657":6.0291314125061035,"2658":-15.173639297485352,"2659":9.347646713256836,"2660":0.6108292937278748,"2661":-7.539004325866699,"2662":6.7934722900390625,"2663":-2.6600546836853027,"2664":12.690078735351562,"2665":-4.558212757110596,"2666":-10.776577949523926,"2667":-2.750678062438965,"2668":-5.338881015777588,"2669":2.3440134525299072,"2670":-1.1563712358474731,"2671":1.378791332244873,"2672":0.023229273036122322,"2673":-4.191354274749756,"2674":-1.630893588066101,"2675":12.424650192260742,"2676":-1.0893787145614624,"2677":-3.406205654144287,"2678":1.164567232131958,"2679":1.8604687452316284,"2680":1.3522017002105713,"2681":-0.9083121418952942,"2682":1.8395106792449951,"2683":-0.8200427293777466,"2684":4.381847381591797,"2685":-1.2446211576461792,"2686":2.077810287475586,"2687":-4.91866397857666,"2688":-3.6186509132385254,"2689":-3.073953628540039,"2690":6.517399311065674,"2691":-0.7984013557434082,"2692":-1.8050583600997925,"2693":-5.030543327331543,"2694":5.813484191894531,"2695":-4.380191802978516,"2696":-2.6718220710754395,"2697":-1.232008457183838,"2698":4.762099266052246,"2699":-7.334722995758057,"2700":5.0946550369262695,"2701":-6.800480365753174,"2702":5.355257511138916,"2703":-1.7731176614761353,"2704":-4.721597194671631,"2705":1.9489147663116455,"2706":6.846173286437988,"2707":3.5170090198516846,"2708":0.04859752953052521,"2709":5.015532970428467,"2710":1.2762385606765747,"2711":-8.927111625671387,"2712":7.391716957092285,"2713":1.6977825164794922,"2714":1.1859623193740845,"2715":3.033341646194458,"2716":7.863542079925537,"2717":-4.440151214599609,"2718":-5.043660640716553,"2719":4.938510417938232,"2720":7.088237285614014,"2721":-5.164193153381348,"2722":4.5070695877075195,"2723":0.36799734830856323,"2724":3.251896381378174,"2725":3.524799108505249,"2726":-0.3371051251888275,"2727":-7.894662857055664,"2728":11.052515983581543,"2729":3.6249115467071533,"2730":5.043609619140625,"2731":-7.178247451782227,"2732":-4.0122389793396,"2733":20.396892547607422,"2734":-6.0680928230285645,"2735":0.057428788393735886,"2736":15.113908767700195,"2737":6.199928283691406,"2738":7.079841136932373,"2739":-15.577484130859375,"2740":7.768465518951416,"2741":-13.602137565612793,"2742":-3.8008739948272705,"2743":3.682955741882324,"2744":-5.326172828674316,"2745":-1.4333806037902832,"2746":-11.653576850891113,"2747":-13.716988563537598,"2748":-2.494162082672119,"2749":-2.2261874675750732,"2750":2.703310489654541,"2751":0.5875492095947266,"2752":-6.2440185546875,"2753":3.858689069747925,"2754":3.637009620666504,"2755":3.402653217315674,"2756":12.617161750793457,"2757":-20.133132934570312,"2758":4.562827110290527,"2759":-0.5876955986022949,"2760":0.7045527100563049,"2761":-4.314872741699219,"2762":-5.87061071395874,"2763":11.995587348937988,"2764":-3.0519561767578125,"2765":20.034971237182617,"2766":5.963438510894775,"2767":-8.896753311157227,"2768":2.853154182434082,"2769":4.389219284057617,"2770":5.8854289054870605,"2771":5.584638595581055,"2772":1.7930444478988647,"2773":21.67316246032715,"2774":-1.0993610620498657,"2775":2.2163469791412354,"2776":-8.480084419250488,"2777":-1.9433406591415405,"2778":5.246492385864258,"2779":-19.07240104675293,"2780":7.633275032043457,"2781":-5.857554912567139,"2782":4.6261701583862305,"2783":3.9957993030548096,"2784":-15.514852523803711,"2785":1.5883049964904785,"2786":5.635463714599609,"2787":-5.659048080444336,"2788":2.966559648513794,"2789":-14.45588207244873,"2790":9.137295722961426,"2791":11.533357620239258,"2792":3.3532042503356934,"2793":-10.55660343170166,"2794":-8.703660011291504,"2795":-1.49526047706604,"2796":-2.978487491607666,"2797":5.858582496643066,"2798":6.333489418029785,"2799":-4.620945930480957,"2800":-0.9593849182128906,"2801":-4.191417694091797,"2802":4.588916778564453,"2803":9.278035163879395,"2804":-5.582021236419678,"2805":-3.845524311065674,"2806":-0.5060240626335144,"2807":-10.877373695373535,"2808":-10.0419921875,"2809":1.8078852891921997,"2810":-6.249176979064941,"2811":6.337014198303223,"2812":-2.670647144317627,"2813":17.999393463134766,"2814":1.8511847257614136,"2815":-6.395663738250732,"2816":-3.970092296600342,"2817":0.5059991478919983,"2818":16.63683319091797,"2819":7.995805740356445,"2820":-9.575571060180664,"2821":-5.264429092407227,"2822":4.046494483947754,"2823":-1.8799231052398682,"2824":8.14261245727539,"2825":9.272976875305176,"2826":2.2405269145965576,"2827":-10.246957778930664,"2828":-5.135839462280273,"2829":-1.1350047588348389,"2830":-9.68409252166748,"2831":4.492191791534424,"2832":2.033602714538574,"2833":-8.42897891998291,"2834":-4.05205774307251,"2835":4.186153411865234,"2836":-2.9376673698425293,"2837":-9.919017791748047,"2838":0.5443258881568909,"2839":5.484185695648193,"2840":1.9584379196166992,"2841":0.7259680032730103,"2842":5.714519023895264,"2843":-0.4747101366519928,"2844":4.732311725616455,"2845":2.1965413093566895,"2846":-2.68822979927063,"2847":5.4557108879089355,"2848":-0.5223584771156311,"2849":3.800394296646118,"2850":-8.047163009643555,"2851":0.012131924740970135,"2852":4.538758754730225,"2853":0.057389259338378906,"2854":0.46229276061058044,"2855":-2.286500930786133,"2856":-1.4344935417175293,"2857":-3.245138645172119,"2858":-5.505417346954346,"2859":6.380516052246094,"2860":1.3531533479690552,"2861":-6.881440162658691,"2862":-3.6026124954223633,"2863":-3.041822910308838,"2864":-6.393881320953369,"2865":1.4177240133285522,"2866":4.283642768859863,"2867":5.530948638916016,"2868":1.007625937461853,"2869":-5.400821208953857,"2870":5.849896430969238,"2871":6.838964462280273,"2872":3.033210515975952,"2873":-1.9345018863677979,"2874":1.3847867250442505,"2875":-2.9597411155700684,"2876":4.051443099975586,"2877":-5.325962066650391,"2878":-1.3819383382797241,"2879":1.2073415517807007,"2880":-2.6628823280334473,"2881":1.3521299362182617,"2882":-5.5325469970703125,"2883":-2.0186874866485596,"2884":6.4418792724609375,"2885":4.580615997314453,"2886":-4.189128398895264,"2887":4.577354431152344,"2888":0.10083931684494019,"2889":0.14352503418922424,"2890":-7.086925983428955,"2891":0.48103615641593933,"2892":-4.573795795440674,"2893":-3.204374074935913,"2894":-1.7326953411102295,"2895":-3.0704381465911865,"2896":-0.5055420994758606,"2897":3.992614984512329,"2898":5.640268325805664,"2899":-0.5492532849311829,"2900":8.663603782653809,"2901":0.09221161156892776,"2902":2.057462453842163,"2903":7.291557312011719,"2904":1.854233741760254,"2905":-0.06427071988582611,"2906":-8.781167984008789,"2907":-0.14465908706188202,"2908":-10.351934432983398,"2909":-5.369507312774658,"2910":5.398798942565918,"2911":13.45130729675293,"2912":4.502750396728516,"2913":-11.425110816955566,"2914":-4.6974406242370605,"2915":0.40312016010284424,"2916":3.41585636138916,"2917":-1.4408856630325317,"2918":-7.479996204376221,"2919":0.8885971307754517,"2920":-1.703325867652893,"2921":4.5899505615234375,"2922":-5.225251197814941,"2923":8.507891654968262,"2924":-4.265545845031738,"2925":10.7459077835083,"2926":4.876162528991699,"2927":5.591427803039551,"2928":-0.2889643907546997,"2929":-2.6993680000305176,"2930":-2.0259759426116943,"2931":-7.024194717407227,"2932":-14.114832878112793,"2933":10.583380699157715,"2934":4.943214416503906,"2935":4.3202104568481445,"2936":-1.7631078958511353,"2937":4.076425552368164,"2938":-6.863752841949463,"2939":5.344702243804932,"2940":-8.797505378723145,"2941":-4.268874168395996,"2942":-0.16023941338062286,"2943":5.668147563934326,"2944":-3.5382461547851562,"2945":9.490632057189941,"2946":10.899566650390625,"2947":5.34144401550293,"2948":-13.050376892089844,"2949":10.947816848754883,"2950":-2.765448808670044,"2951":-5.572212219238281,"2952":-6.236739635467529,"2953":0.4448559582233429,"2954":2.3122870922088623,"2955":3.5914628505706787,"2956":-8.966184616088867,"2957":-6.7376322746276855,"2958":2.7251875400543213,"2959":0.611040472984314,"2960":13.5724515914917,"2961":3.857343912124634,"2962":-7.178099632263184,"2963":0.7616676688194275,"2964":7.228365898132324,"2965":6.166548252105713,"2966":-0.39676132798194885,"2967":6.235860347747803,"2968":4.143673896789551,"2969":-2.7527551651000977,"2970":-1.8327034711837769,"2971":5.224112033843994,"2972":0.9258946776390076,"2973":-4.294353485107422,"2974":-0.983563244342804,"2975":7.558967590332031,"2976":-2.712918519973755,"2977":-5.863005638122559,"2978":-2.8887131214141846,"2979":1.3116586208343506,"2980":-0.582176923751831,"2981":-3.0741238594055176,"2982":3.1240158081054688,"2983":2.2731857299804688,"2984":0.6233865022659302,"2985":6.79122257232666,"2986":4.026546955108643,"2987":-3.1480979919433594,"2988":2.1454362869262695,"2989":-6.0830864906311035,"2990":4.937507629394531,"2991":2.3076891899108887,"2992":-3.891684055328369,"2993":2.093344211578369,"2994":-1.4433555603027344,"2995":3.2855207920074463,"2996":-5.866765022277832,"2997":7.897096157073975,"2998":-0.22492824494838715,"2999":4.337920188903809,"3000":5.310921669006348,"3001":0.9186766743659973,"3002":-0.739014744758606,"3003":-2.0256752967834473,"3004":1.9314244985580444,"3005":11.080671310424805,"3006":-4.996860504150391,"3007":-3.0184054374694824,"3008":1.100564956665039,"3009":1.5197151899337769,"3010":10.484933853149414,"3011":-2.3151988983154297,"3012":-0.1816505342721939,"3013":-6.78883171081543,"3014":2.16310453414917,"3015":-4.2792887687683105,"3016":-5.098208904266357,"3017":11.084272384643555,"3018":11.93953800201416,"3019":-3.7746124267578125,"3020":10.856252670288086,"3021":11.202420234680176,"3022":6.112969398498535,"3023":-22.984079360961914,"3024":-2.555845022201538,"3025":-1.8788642883300781,"3026":-5.9221930503845215,"3027":8.5868558883667,"3028":-1.6913203001022339,"3029":4.1083760261535645,"3030":-1.2769925594329834,"3031":9.686629295349121,"3032":-7.407896518707275,"3033":8.21927547454834,"3034":0.11130701005458832,"3035":0.9164779782295227,"3036":15.315863609313965,"3037":-3.3967459201812744,"3038":6.791043281555176,"3039":1.4324595928192139,"3040":16.153356552124023,"3041":1.717797040939331,"3042":10.263381958007812,"3043":-2.136781692504883,"3044":7.722045421600342,"3045":-3.7984533309936523,"3046":-0.4158008396625519,"3047":3.3186466693878174,"3048":8.074060440063477,"3049":8.358304023742676,"3050":-14.802001953125,"3051":-10.132733345031738,"3052":-4.053328990936279,"3053":-6.407925605773926,"3054":-1.4493955373764038,"3055":-4.913774490356445,"3056":1.5019440650939941,"3057":-7.088784694671631,"3058":-8.813969612121582,"3059":7.169614791870117,"3060":-5.722934722900391,"3061":-1.5857847929000854,"3062":9.188519477844238,"3063":-13.967765808105469,"3064":3.468316078186035,"3065":7.9686150550842285,"3066":6.276337146759033,"3067":-8.429399490356445,"3068":-2.3265790939331055,"3069":11.133123397827148,"3070":-8.732869148254395,"3071":-4.376621246337891,"3072":-5.7979865074157715,"3073":-1.0700829029083252,"3074":-14.1379976272583,"3075":-20.365537643432617,"3076":-12.661102294921875,"3077":-14.102707862854004,"3078":1.8788882493972778,"3079":-16.600114822387695,"3080":20.500688552856445,"3081":10.879193305969238,"3082":-0.4103540778160095,"3083":-5.776893138885498,"3084":-12.97005844116211,"3085":-11.834451675415039,"3086":6.765270233154297,"3087":5.126226425170898,"3088":6.367982864379883,"3089":-6.605057716369629,"3090":-1.3474922180175781,"3091":-8.40428352355957,"3092":16.1413631439209,"3093":10.173160552978516,"3094":-1.719307541847229,"3095":3.900012969970703,"3096":-9.452881813049316,"3097":-12.183658599853516,"3098":-16.960411071777344,"3099":8.573485374450684,"3100":-5.705461025238037,"3101":1.2572134733200073,"3102":-8.854418754577637,"3103":15.904232025146484,"3104":11.712331771850586,"3105":9.333295822143555,"3106":2.652487277984619,"3107":-2.0032882690429688,"3108":13.768388748168945,"3109":2.17935848236084,"3110":1.5014748573303223,"3111":10.16982650756836,"3112":-19.130233764648438,"3113":9.723983764648438,"3114":-12.100749015808105,"3115":4.039228916168213,"3116":7.598180294036865,"3117":-23.357608795166016,"3118":-3.6091060638427734,"3119":-8.621078491210938,"3120":-1.1068599224090576,"3121":8.044017791748047,"3122":8.396343231201172,"3123":-11.046305656433105,"3124":-0.3199699819087982,"3125":18.009456634521484,"3126":-22.350589752197266,"3127":6.167453289031982,"3128":5.948728084564209,"3129":16.642105102539062,"3130":12.384284973144531,"3131":5.1584625244140625,"3132":-7.490110874176025,"3133":1.5830273628234863,"3134":-4.421321868896484,"3135":-14.020428657531738,"3136":-5.415266036987305,"3137":-14.787406921386719,"3138":9.540911674499512,"3139":6.153619289398193,"3140":-7.559857368469238,"3141":-7.842927932739258,"3142":-18.772083282470703,"3143":-11.967751502990723,"3144":0.1916877031326294,"3145":3.0592033863067627,"3146":15.316587448120117,"3147":-8.571205139160156,"3148":-7.110586643218994,"3149":-9.270828247070312,"3150":20.349502563476562,"3151":6.728446960449219,"3152":3.239640474319458,"3153":-4.340057373046875,"3154":12.193988800048828,"3155":-20.718189239501953,"3156":-2.276913642883301,"3157":-5.02262020111084,"3158":-7.462680339813232,"3159":2.7580525875091553,"3160":-1.4193590879440308,"3161":29.844562530517578,"3162":9.261190414428711,"3163":1.522925853729248,"3164":12.058996200561523,"3165":1.5788100957870483,"3166":-5.084964275360107,"3167":-4.252030849456787,"3168":13.333168029785156,"3169":8.126800537109375,"3170":-12.686498641967773,"3171":6.8567423820495605,"3172":3.581791639328003,"3173":29.879003524780273,"3174":-7.521471977233887,"3175":-11.67268180847168,"3176":-11.004719734191895,"3177":-0.7722108364105225,"3178":-3.865849494934082,"3179":-5.745620250701904,"3180":-6.736495018005371,"3181":0.6066166162490845,"3182":-5.052896976470947,"3183":11.9083251953125,"3184":-15.003500938415527,"3185":6.837700366973877,"3186":6.207175254821777,"3187":1.1809898614883423,"3188":4.847815990447998,"3189":-6.920188903808594,"3190":8.124467849731445,"3191":-8.20352840423584,"3192":-3.67736554145813,"3193":3.2299318313598633,"3194":-12.509237289428711,"3195":-3.809119939804077,"3196":5.693208694458008,"3197":14.142728805541992,"3198":-6.971572399139404,"3199":-0.4802055358886719,"3200":0.7107040882110596,"3201":-5.712498188018799,"3202":-3.4689035415649414,"3203":1.0397802591323853,"3204":-0.6265687346458435,"3205":0.678618848323822,"3206":2.1089706420898438,"3207":2.641925096511841,"3208":11.823859214782715,"3209":-3.251528263092041,"3210":-6.117316246032715,"3211":-7.806519985198975,"3212":-10.967801094055176,"3213":-19.008289337158203,"3214":-2.1756668090820312,"3215":2.993192434310913,"3216":-7.187654495239258,"3217":-16.153385162353516,"3218":4.285337924957275,"3219":-6.434667110443115,"3220":18.57587242126465,"3221":-5.1185078620910645,"3222":2.6879513263702393,"3223":2.6955132484436035,"3224":16.98077392578125,"3225":9.156855583190918,"3226":12.293261528015137,"3227":-1.0788064002990723,"3228":-2.5296428203582764,"3229":-4.041111469268799,"3230":-14.706408500671387,"3231":5.0927300453186035,"3232":5.631829738616943,"3233":-5.28800106048584,"3234":19.329870223999023,"3235":2.4669277667999268,"3236":-9.517988204956055,"3237":3.0450196266174316,"3238":5.1518731117248535,"3239":-10.91675090789795,"3240":0.32334092259407043,"3241":-2.81500244140625,"3242":-2.884758472442627,"3243":-28.26755714416504,"3244":12.07755184173584,"3245":-0.18555676937103271,"3246":15.166017532348633,"3247":-2.9630672931671143,"3248":0.09379014372825623,"3249":0.42157116532325745,"3250":-0.5224524736404419,"3251":-0.6992871165275574,"3252":-1.699009895324707,"3253":2.142716407775879,"3254":-0.3604279160499573,"3255":2.3178694248199463,"3256":-0.06944143772125244,"3257":-0.6748572587966919,"3258":0.2939538061618805,"3259":-0.7043443322181702,"3260":0.5710700154304504,"3261":1.0765364170074463,"3262":0.9321804642677307,"3263":-1.668642282485962,"3264":1.5657970905303955,"3265":-1.0880908966064453,"3266":-1.2745357751846313,"3267":-1.87850022315979,"3268":-0.6206269264221191,"3269":-0.15797007083892822,"3270":-0.3732702136039734,"3271":0.2254025638103485,"3272":0.1473274528980255,"3273":0.5782263278961182,"3274":-2.2711281776428223,"3275":1.4873137474060059,"3276":-0.25501659512519836,"3277":-1.780592441558838,"3278":-1.2106462717056274,"3279":-1.4898909330368042,"3280":0.5996072292327881,"3281":0.9415186047554016,"3282":-1.219044804573059,"3283":0.27680903673171997,"3284":1.035237431526184,"3285":1.1883652210235596,"3286":-0.9434281587600708,"3287":4.507150173187256,"3288":1.3971662521362305,"3289":1.4496092796325684,"3290":1.6061441898345947,"3291":-1.4804604053497314,"3292":-0.25801408290863037,"3293":0.9312296509742737,"3294":-0.15435759723186493,"3295":0.23396959900856018,"3296":0.11040374636650085,"3297":-0.9700563549995422,"3298":-1.2047395706176758,"3299":-1.595504641532898,"3300":0.6354520916938782,"3301":0.4383382797241211,"3302":3.107158899307251,"3303":-0.6503006219863892,"3304":0.832503616809845,"3305":-1.7960281372070312,"3306":-0.6061967015266418,"3307":-0.48565739393234253,"3308":0.6305068731307983,"3309":-0.47776684165000916,"3310":-0.622707724571228,"3311":0.9133806228637695,"3312":-1.1391323804855347,"3313":0.590234637260437,"3314":-0.441546767950058,"3315":1.2899221181869507,"3316":0.0541122667491436,"3317":0.37125158309936523,"3318":0.985260546207428,"3319":-0.1400872766971588,"3320":-0.024634763598442078,"3321":1.0905461311340332,"3322":-0.8167737722396851,"3323":0.17843452095985413,"3324":-0.5422409176826477,"3325":-1.2923256158828735,"3326":-0.7883539795875549,"3327":-0.20858722925186157,"3328":-2.2312211990356445,"3329":0.883566677570343,"3330":0.15705783665180206,"3331":0.35843485593795776,"3332":-2.488982915878296,"3333":0.511735200881958,"3334":1.6127678155899048,"3335":-1.9809465408325195,"3336":-0.4023200571537018,"3337":-0.8478054404258728,"3338":-0.060274265706539154,"3339":1.4669605493545532,"3340":-0.3970597982406616,"3341":-1.854081153869629,"3342":0.12898527085781097,"3343":1.758920669555664,"3344":-1.9309427738189697,"3345":-0.2758236527442932,"3346":-0.396016925573349,"3347":-0.6806102395057678,"3348":2.0961380004882812,"3349":1.9293081760406494,"3350":-0.6028765439987183,"3351":2.2632758617401123,"3352":-0.46829479932785034,"3353":-3.1218180656433105,"3354":-1.8947997093200684,"3355":-0.45442667603492737,"3356":0.15478576719760895,"3357":-3.206723928451538,"3358":-1.08548903465271,"3359":-0.587638258934021,"3360":0.982552170753479,"3361":0.8006584644317627,"3362":1.2112857103347778,"3363":-1.2798590660095215,"3364":-0.06882490962743759,"3365":0.07414902001619339,"3366":-0.04506266117095947,"3367":-0.06051940098404884,"3368":-0.029069261625409126,"3369":0.07072961330413818,"3370":-0.048496589064598083,"3371":-0.023699505254626274,"3372":0.05642377957701683,"3373":-0.060644906014204025,"3374":-0.024690648540854454,"3375":0.07754059880971909,"3376":-0.04108819738030434,"3377":-0.023063134402036667,"3378":0.007677493616938591,"3379":-0.055525485426187515,"3380":0.017772287130355835,"3381":-0.036686114966869354,"3382":0.058598943054676056,"3383":0.01805974543094635,"3384":0.019422369077801704,"3385":0.045813143253326416,"3386":0.02935233898460865,"3387":0.021386394277215004,"3388":0.030662555247545242,"3389":-0.0615941658616066,"3390":-0.03299928084015846,"3391":-0.01657365821301937,"3392":-0.06103897839784622,"3393":0.02987588569521904,"3394":-0.028528591617941856,"3395":-0.03324107825756073,"3396":-0.004066241905093193,"3397":0.06225235387682915,"3398":-0.050809696316719055,"3399":-0.02377055585384369,"3400":-0.011355007067322731,"3401":0.0691210925579071,"3402":0.03534703701734543,"3403":0.0029393997974693775,"3404":-0.04219646751880646,"3405":-0.02803901396691799,"3406":0.07594248652458191,"3407":0.06243209168314934,"3408":-0.04928866773843765,"3409":0.023631127551198006,"3410":-0.014545518904924393,"3411":0.020317023620009422,"3412":0.018987538293004036,"3413":0.01290381234139204,"3414":0.06569583714008331,"3415":0.03809714689850807,"3416":0.07594500482082367,"3417":0.06984195113182068,"3418":0.027904536575078964,"3419":-0.013190374709665775,"3420":0.008379085920751095,"3421":-0.0002962721628136933}},"hiddenLayers":[{"inputMatrix":{"rows":20,"columns":58,"weights":{"0":1.945420503616333,"1":1.4055424928665161,"2":0.4765823781490326,"3":1.2348809242248535,"4":-1.2121578454971313,"5":1.3397589921951294,"6":-0.8155404925346375,"7":-0.21981249749660492,"8":0.8038150668144226,"9":2.927478313446045,"10":-0.7856278419494629,"11":1.3591830730438232,"12":1.7133256196975708,"13":-1.7809807062149048,"14":1.2293009757995605,"15":-0.355567067861557,"16":-0.053664349019527435,"17":-0.031299374997615814,"18":-0.48908254504203796,"19":-2.5847344398498535,"20":0.8940279483795166,"21":-0.26374608278274536,"22":-0.2998541295528412,"23":4.7191057205200195,"24":0.34973207116127014,"25":0.8905156254768372,"26":0.9014511704444885,"27":1.278681755065918,"28":1.0359611511230469,"29":-0.8720915913581848,"30":-1.4935733079910278,"31":-0.17085249722003937,"32":-0.5622482299804688,"33":-0.0874045193195343,"34":0.14055530726909637,"35":-0.8224326372146606,"36":-2.0525500774383545,"37":0.8791980743408203,"38":-0.010541519150137901,"39":1.1363354921340942,"40":-1.809370994567871,"41":-0.2791613042354584,"42":0.09317086637020111,"43":2.103087902069092,"44":-0.46697136759757996,"45":0.5605872869491577,"46":1.01742422580719,"47":-1.985040307044983,"48":0.8738926649093628,"49":0.007841113954782486,"50":-0.7612288594245911,"51":-0.928307831287384,"52":1.579697847366333,"53":0.5615969896316528,"54":0.07915958017110825,"55":-2.3954319953918457,"56":-1.214997410774231,"57":-1.1516131162643433,"58":-1.1188455820083618,"59":0.5089907050132751,"60":1.3394514322280884,"61":-0.27908003330230713,"62":-0.24747434258460999,"63":1.4285279512405396,"64":0.2875956594944,"65":-2.005772829055786,"66":-0.6410654187202454,"67":0.48372530937194824,"68":-1.5652074813842773,"69":-0.5475817918777466,"70":-2.198331356048584,"71":1.722960352897644,"72":-0.024620186537504196,"73":0.38360297679901123,"74":2.084679365158081,"75":-3.3638975620269775,"76":0.5109386444091797,"77":0.6499296426773071,"78":-2.320936441421509,"79":2.072599172592163,"80":-0.820137083530426,"81":-2.060892343521118,"82":0.9391881227493286,"83":0.6042372584342957,"84":-1.4228023290634155,"85":2.4316210746765137,"86":-2.3194544315338135,"87":1.1310853958129883,"88":-0.6399009823799133,"89":1.4954164028167725,"90":0.17382875084877014,"91":0.006012431811541319,"92":-1.5330955982208252,"93":-0.7942447066307068,"94":1.069770336151123,"95":-1.1406201124191284,"96":-1.166542410850525,"97":-1.0500527620315552,"98":0.5682826042175293,"99":2.94233775138855,"100":0.7227082848548889,"101":0.22982747852802277,"102":0.7713314294815063,"103":0.4152168929576874,"104":-0.5770391225814819,"105":-0.2297820895910263,"106":-1.7154133319854736,"107":-0.5639110207557678,"108":2.796511650085449,"109":-1.980002760887146,"110":0.6863526701927185,"111":1.214967131614685,"112":1.466030478477478,"113":-0.06938348710536957,"114":1.3177931308746338,"115":-1.563269853591919,"116":-2.963106393814087,"117":0.13426615297794342,"118":0.33794766664505005,"119":-1.2952446937561035,"120":-1.321066975593567,"121":-1.8312758207321167,"122":0.12761542201042175,"123":-2.850404739379883,"124":-1.0799223184585571,"125":-1.710280418395996,"126":-2.5973191261291504,"127":0.06585463881492615,"128":-1.0741215944290161,"129":-0.3510710299015045,"130":0.3970533013343811,"131":0.9366742968559265,"132":1.3632344007492065,"133":-2.246565818786621,"134":1.1359658241271973,"135":-0.19449014961719513,"136":-2.814826250076294,"137":0.822465181350708,"138":-0.35229378938674927,"139":-2.8417892456054688,"140":-0.21484048664569855,"141":-0.8791329264640808,"142":0.9887685775756836,"143":-0.14995454251766205,"144":-1.9287718534469604,"145":3.4014413356781006,"146":-0.18729855120182037,"147":0.1760116070508957,"148":-0.4495493173599243,"149":-1.378509759902954,"150":2.650377035140991,"151":2.1636104583740234,"152":1.4977784156799316,"153":-1.2169489860534668,"154":-0.46529021859169006,"155":-2.706533432006836,"156":0.07859443128108978,"157":2.7919209003448486,"158":1.0119853019714355,"159":-0.8646875023841858,"160":0.8047633171081543,"161":1.5599896907806396,"162":-2.151491641998291,"163":-0.08528106659650803,"164":-0.8142983317375183,"165":0.34368348121643066,"166":0.5451969504356384,"167":0.07896461337804794,"168":-0.5186833739280701,"169":0.9354263544082642,"170":0.7189420461654663,"171":0.6023181676864624,"172":-0.7778539061546326,"173":0.1993735432624817,"174":-0.037102553993463516,"175":0.013601097278296947,"176":0.3688974380493164,"177":1.8694233894348145,"178":0.38837185502052307,"179":-1.2304166555404663,"180":0.0629650354385376,"181":2.156942367553711,"182":-0.6772488355636597,"183":0.1586654633283615,"184":1.3777780532836914,"185":-2.5468814373016357,"186":-2.494584321975708,"187":-1.6388927698135376,"188":-2.7911949157714844,"189":0.2899636924266815,"190":-0.6612949967384338,"191":2.2790446281433105,"192":-0.8772333264350891,"193":-2.8513708114624023,"194":0.5700709223747253,"195":-0.6474913954734802,"196":0.2729780375957489,"197":-1.047329306602478,"198":-1.0298668146133423,"199":2.372889518737793,"200":1.02266263961792,"201":-1.6588690280914307,"202":0.9651256203651428,"203":1.3527729511260986,"204":-0.04861808940768242,"205":0.20968526601791382,"206":2.42138934135437,"207":-1.312758207321167,"208":2.1154396533966064,"209":0.6920344829559326,"210":0.8211477398872375,"211":0.08809874951839447,"212":0.279830664396286,"213":-2.741921901702881,"214":1.446527123451233,